2691 100
the 0.2519443 -0.23940025 -0.11601216 -0.13997583 -0.01059627 0.064782284 0.2545857 -0.011034398 0.22559755 0.26543495 -0.09868449 0.29315022 -0.057482194 0.11078394 0.0024119816 0.21224508 0.027014459 -0.16505879 -0.13148957 0.2027887 -0.26147255 0.11048763 -0.35540307 0.043506745 0.001939571 -0.13753118 -0.27186552 0.3942813 -0.033322472 -0.1867358 0.07357866 0.11062799 -0.26297098 0.38051313 -0.08427285 -0.053517498 -0.43535045 0.159856 0.07092057 -0.2414502 -0.3353666 -0.084931694 0.0001068759 -0.30047473 0.05950075 0.31954676 -0.19402695 -0.01455268 0.028332703 0.020580828 0.31982887 0.14416195 0.3214363 0.42436528 0.118614174 -0.1273234 -0.074361645 0.2767512 0.09208928 0.038834877 -0.05204916 -0.02513317 -0.078384936 0.21367432 -0.16968289 -0.22219718 -0.23905303 -0.2583184 -0.06048436 0.095660076 0.20714928 0.28614086 -0.049914993 -0.26251054 -0.10092026 -0.045087684 -0.059282787 -0.037955355 -0.07961399 0.09070749 -0.08648855 0.28538638 -0.3406582 0.16894351 0.091127455 -0.07094406 0.035785865 -0.0624156 -0.40536878 -0.28590637 0.055256348 0.21716198 0.114603534 0.017827006 -0.3825882 -0.1565926 0.1253686 -0.064708866 0.26011088 -0.03499438
be 0.31647688 -0.21794063 -0.33971226 -0.15942495 -0.073266946 0.18688859 0.09627886 -0.13430323 0.21174261 0.16387591 -0.009816114 0.3639639 0.110806845 0.11575248 0.029894145 -0.06962952 0.026501644 -0.027635269 -0.12115486 0.1748974 -0.06968149 -0.014560449 0.24837065 -0.20431028 0.15043245 -0.11035082 -0.25098586 0.11246747 0.18786906 -0.122596614 0.13375615 -3.2155964e-05 -0.041275542 0.31679004 -0.2774649 -0.35946444 -0.49639618 0.29365292 -0.074910946 -0.27978972 -0.3227902 0.054024704 0.021496814 -0.58833086 0.2661966 0.23557457 -0.027956575 0.09353658 -0.0023450856 0.11760055 0.13895343 0.07974248 -0.1059791 0.5608412 -0.065021574 -0.515341 0.1865966 0.29348394 -0.33555388 -0.084033996 0.023282025 0.15852894 -0.17111062 0.44883594 -0.18614486 -0.12300597 -0.09942792 0.08132872 0.19959901 0.06392343 -0.06272224 0.07295095 0.1948391 0.17763294 -0.09192095 -0.028925411 -0.14655654 0.26281768 -0.21716051 0.16201101 -0.3174761 0.08087894 -0.2874178 -0.009956471 0.21785453 -0.0400005 -0.19222592 -0.30909434 -0.048100032 -0.07411319 -0.059257224 0.2926968 -0.106646456 -0.012230991 -0.29466853 0.0030910838 0.15212291 -0.43312395 0.17621869 0.051604897
to 0.17518722 -0.23379025 -0.33898807 -0.07557455 -0.3775193 -0.099242605 -0.03958157 -0.076279454 0.23659419 -0.115508944 -0.24987294 0.2680737 -0.21601765 -0.10299725 0.30394372 -0.113889776 -0.19737546 0.2235332 0.033027597 0.44754878 -0.11785577 -0.012249395 -0.043695394 -0.06370026 0.044674665 0.16533177 -0.16017394 0.22459394 -0.10184951 -0.46975183 0.2838029 0.015547328 -0.32758474 0.27028325 -0.08189132 -0.087881416 -0.3471139 -0.21465157 -0.03795265 -0.12963988 -0.3331438 0.049417764 0.22681867 -0.2995292 -0.114722654 0.1944872 0.3017128 0.012808422 0.23942846 -0.2931618 0.2711297 -0.017963702 -0.036014415 0.68667626 -0.0052713146 -0.22835466 0.12793358 0.048470963 -0.47341853 -0.21855654 -0.13171023 -0.16476226 -0.20949452 0.124741554 -0.3329727 -0.36841205 -0.26447207 0.0045383885 0.17591958 0.16752096 0.104452364 0.12000613 0.1631467 0.10168976 -0.23550297 -0.41346624 -0.46757942 0.2750104 -0.11161539 -0.33247286 -0.34401077 0.03150062 -0.18222718 0.077187896 -0.00042486028 -0.2613525 -0.12493603 -0.0948744 0.19633383 0.003604045 -0.27725863 0.20979044 -0.1673804 0.14837949 0.052024998 -0.49378124 0.26221892 -0.12814295 0.029253284 0.08844563
in 0.36798555 -0.34570017 -0.047666498 -0.30749828 0.25102064 -0.06288931 0.20450012 0.17611536 0.114897564 0.12175677 -0.061247766 0.4274843 0.103172146 0.090188265 0.04241099 0.20881219 -0.07190757 -0.052280024 0.026146553 0.17587133 -0.09685646 0.015792772 -0.2705285 -0.02437376 0.019278279 -0.3910249 -0.002952348 0.24860719 0.19230078 -0.32251087 0.28905523 0.023334265 -0.06825929 0.28357634 0.1138235 -0.070022725 -0.5151516 0.09074139 0.26660153 -0.18122485 -0.25092366 -0.16654207 0.009611892 -0.407281 -0.13763793 0.19041672 -0.18348537 0.004987064 -0.08184501 0.11743366 0.2317457 0.10280561 0.26050788 0.38191977 0.011433447 -0.007208651 -0.108026266 0.27926975 -0.10680794 -0.14751318 0.28026846 -0.10617904 -0.2100191 0.19196224 -0.3869527 0.014640324 -0.12310267 0.10022497 0.089534506 0.21495272 0.18576363 0.19135079 -0.23422115 0.0122698285 -0.31384048 -0.13408202 0.047514524 -0.16564146 -0.32895985 0.09551313 -0.29719794 0.21429665 -0.36592835 -0.24660312 0.026141504 -0.0073582977 -0.0013416226 -0.07669785 -0.0060610706 -0.087475665 0.01946331 0.30137312 0.04848875 0.02223293 -0.16542374 -0.06757217 0.4154111 -0.44083774 0.18385549 -0.2169244
and 0.28891686 -0.1318111 -0.19010739 -0.23479447 -0.14701955 0.23931128 0.3042073 0.041524578 0.113305435 0.086684495 -0.115529664 0.21104696 0.083813146 0.04211204 0.080761954 0.22288328 -0.16380242 0.040886395 -0.06350932 0.18106878 -0.22383286 0.006040237 -0.25230107 0.017891262 0.11666648 0.085066125 -0.06906194 0.1321503 0.112867534 -0.2972942 0.14871483 0.0063584717 -0.04868686 0.15635847 -0.10879072 -0.0038876887 -0.2919956 -0.016152326 -0.09554022 -0.30464166 -0.30096614 -0.17562784 -0.06617161 -0.2401992 0.09915136 0.24697106 -0.007906401 -0.07809567 0.13778163 -0.12148834 0.2895435 0.22948658 0.17943381 0.3173188 0.16497569 -0.045440402 -0.09618863 0.07578491 -0.16775395 -0.006477745 0.013423518 -0.11706886 0.0016407431 0.21338174 -0.14095514 -0.20519479 -0.07458637 -0.05802078 -0.035454642 0.021953259 0.25761455 0.11655644 -0.016051754 -0.083384395 -0.19140242 -0.18925594 -0.18435533 -0.02136191 -0.25197375 -0.057188977 -0.38018322 0.22447525 -0.13379233 0.1228982 -0.25587294 -0.20632377 0.095348805 0.08817631 -0.23682821 -0.17497075 -0.1287665 0.22987224 0.052443225 0.21798623 -0.19777773 -0.13215715 0.23967023 -0.1083153 0.3407723 0.05227083
of 0.3488684 -0.30414417 -0.006784939 -0.189829 -0.15580133 0.09359929 0.09712707 0.15310048 0.15481761 0.26230207 -0.0054483186 0.17413367 0.22055903 0.045115553 -0.21830195 0.19117457 0.08498134 0.18924138 -0.12572813 0.272493 -0.2343534 -0.066577256 -0.31296018 -0.25388083 0.13352177 -0.12365994 -0.015037285 0.14974812 0.30408382 -0.26062465 0.03648461 -0.12558188 0.021571383 0.16430007 0.04615703 -0.040135037 -0.24525796 0.34058544 -0.025589813 -0.26552302 -0.20218813 -0.25007066 -0.167906 -0.31890097 0.11528304 0.39908224 -0.02415286 -0.026560528 0.22124471 0.10815169 0.39241484 0.10823813 0.24994938 0.2339875 0.17747834 -0.1660019 -0.1883476 -0.057492707 -0.25384527 -0.19529293 0.055757873 0.19327752 -0.18148242 0.2061615 -0.4033215 -0.040826105 -0.17578806 -0.0547101 -0.14883846 0.19664365 0.21053782 0.10252724 -0.24163282 -0.08165551 -0.099880174 -0.06118262 0.14979929 -0.059419785 -0.30351815 0.005424233 -0.34356308 0.28331882 -0.3319073 0.0021030419 -0.25467497 -0.05039762 0.21839876 -0.1028484 -0.19537461 -0.020885201 -0.014678042 0.12479993 -0.05508303 0.073073216 -0.11291944 -0.1773052 0.19615328 -0.20170456 0.32910085 0.025655087
for 0.35538903 -0.1947363 -0.12797074 -0.38022733 -0.33415416 0.082474664 0.29025882 0.21493433 0.13585706 0.22262824 -0.25750738 0.2298783 0.12308284 -0.014121344 -0.08307376 0.11352993 0.04951209 0.25904924 -0.18301381 0.056564387 -0.23625754 0.072435476 -0.24636209 -0.10858373 0.11366752 -0.065359496 0.020038659 0.26200032 0.11548141 -0.2754299 -0.030391451 0.10463103 -0.042615727 0.38761514 0.09201212 -0.066696756 -0.43586007 0.15766378 0.044481385 -0.22317365 -0.2722125 -0.100286946 -0.13816778 -0.36537734 0.007713126 0.39751092 0.059704512 -0.18814465 0.08770048 0.02248831 0.36009547 0.2663207 0.22466628 0.31373227 0.12688455 -0.17791885 -0.2450446 0.1655359 -0.28575042 -0.15212919 0.10310422 0.235303 -0.27198124 0.23457952 -0.2936675 -0.11863493 -0.11374816 0.050589636 -0.10686576 -0.019067865 0.1337555 0.035264667 -0.18182278 -0.16017854 -0.009854911 0.00541606 -0.016464915 -0.08608607 -0.48588663 -0.07325039 -0.29141217 0.22681032 -0.3372029 -0.030294938 -0.20008725 -0.03869291 -0.054255363 -0.15685207 -0.17487551 -0.21660894 -0.16336791 0.2476258 -0.062928654 0.13412678 0.03838051 -0.32590482 0.07308602 -0.1792819 0.29803023 -0.20027807
have 0.10685514 -0.27585462 -0.081653394 -0.25704992 -0.11837563 0.011209551 0.20276313 0.015484677 0.42453676 -0.059990723 -0.13262764 0.0921708 0.04862531 -0.19142488 0.08401603 0.19901592 0.008070157 -0.15566164 0.05747417 0.0015724704 -0.36892873 -0.15792216 -0.02481471 -0.09722176 0.09040106 -0.10288576 -0.30782774 0.37406784 -0.118071206 -0.0027023233 0.10063407 0.16707422 -0.045282416 0.12877384 -0.17281337 -0.2163083 -0.32689336 -0.022589851 0.0028358242 -0.34343618 -0.35775313 -0.11564018 0.093191504 -0.21964754 0.1172282 0.25999224 0.041601688 0.07617684 0.17317066 0.028483095 0.27706817 -0.17386235 0.26309785 0.43247128 0.09702335 -0.22930743 -0.12733138 0.102963604 -0.17413738 0.24564348 0.05261446 -0.096050695 -0.07260409 0.09875766 -0.331085 -0.2656445 -0.08033899 0.049149737 0.13547128 -0.05252985 0.14838605 0.28900778 0.109625444 -0.15669659 -0.0027897325 -0.093283735 -0.049140364 -0.0940841 -0.32765377 0.06081561 -0.18339662 0.12812626 -0.43997997 0.3195843 0.073841736 -0.16247252 -0.1502187 -0.23183404 0.04263072 -0.1559705 0.015292489 0.29513553 0.065833636 0.0036962358 -0.17447607 -0.121530145 0.5051429 -0.13999923 0.2514247 -0.01335039
not 0.24930938 -0.19483027 -0.30592704 -0.20692606 -0.025185263 0.21102946 0.092745304 -0.13017225 0.26066092 0.10679697 -0.07772869 0.32489127 -0.10615338 0.14594114 0.027765226 -0.11715534 -0.14813966 -0.17277043 -0.0725528 0.27818036 -0.23147291 -0.11903975 -0.03814201 -0.32257506 0.12398967 0.34490776 -0.2979669 0.25413316 0.22204673 0.041579004 0.17906386 9.102806e-05 -0.13282207 0.4418515 -0.23733754 -0.33144346 -0.29634312 -0.16421404 0.20029025 -0.27433714 -0.31172413 -0.22898714 0.12641397 -0.1459375 0.17796227 0.09746475 0.1768693 0.19880912 0.18630563 -0.13463217 -0.05803473 0.21762016 0.26905248 0.36975053 0.027333917 -0.20353241 0.18721041 -0.040396236 -0.029428901 0.09618439 0.09780127 -0.21072692 -0.15881708 0.3303043 -0.012389486 -0.242021 0.043996897 0.19224131 0.35558107 0.19397886 0.08609982 0.24572052 0.2023053 0.11321196 -0.25726384 -0.15247865 -0.18523198 0.22130628 -0.051503748 -0.41855067 -0.39313322 0.21699859 -0.31390715 0.3722598 0.2497387 -0.32834905 -0.09721659 -0.4090153 0.14937732 -0.11959746 -0.35367298 0.49824995 0.05600576 0.30568218 -0.48270133 -0.21458241 0.42511937 -0.365326 0.15166509 0.15574491
on 0.39833978 -0.019575983 -0.19453159 -0.38113686 -0.16682181 0.2854647 0.33891556 0.20999101 -0.010430573 0.110929176 -0.04777958 0.3819673 0.16748413 0.14328542 0.055308923 0.096397854 -0.09004111 -0.028001104 0.094173215 0.11291018 -0.19942825 -0.09193069 -0.30547303 -0.049788073 0.12051601 -0.05171373 -0.14404786 0.096232876 0.2542068 -0.4465803 0.29245877 0.057017528 -0.06263497 0.06909649 -0.18200186 -0.21910441 -0.47676152 0.105707735 0.11653964 -0.25089598 -0.38235262 -0.011371841 -0.05955114 -0.2979285 0.17819774 0.43464974 -0.07514725 -0.25186345 -0.013925721 -0.058039457 0.2686957 0.32205334 0.22232373 0.21284592 0.2122638 -0.048598398 0.08529363 0.41336167 -0.10372068 -0.13890506 0.122100614 -0.07560166 -0.098211884 0.5190422 -0.20203261 -0.18178248 -0.046892963 -0.24664763 0.26146784 -0.026073534 0.0005091258 0.16244654 -0.26190147 -0.18837315 -0.1814933 -0.2888918 -0.17971711 -0.023776071 -0.21224904 -0.03060259 -0.43198365 0.28062716 -0.0128477225 -0.022328705 -0.27104753 -0.12774661 -0.18646592 -0.108852096 -0.31925854 -0.3272348 -0.18594885 0.17311396 -0.022335557 0.049674742 -0.17317875 -0.2881164 0.03291813 -0.0938718 0.21408087 0.022944717
task 0.30452842 -0.2717346 -0.26706454 -0.062185235 -0.2253816 -0.048884135 0.076723054 -0.21709403 0.7631605 -0.3800262 0.0051776073 0.1365795 0.17040895 -0.1855586 0.17995529 0.030105496 0.093575865 -0.045470994 0.11295646 0.25288406 -0.677725 -0.29045308 -0.40993425 -0.059556097 0.16049206 -0.44085163 -0.27605313 0.5299788 -0.027221994 0.022567254 -0.19316104 0.26034507 -0.4714204 0.33318207 0.13590352 -0.2871451 -0.43817985 0.19216032 -0.2256161 -0.40966567 -0.030469244 -0.18666653 -0.105474085 -0.011710472 0.22877137 0.3303216 0.06938911 -0.039811574 -0.27288526 0.068266705 0.041383583 -0.06920416 0.18677817 0.44864264 0.08969821 -0.20360126 -0.032680772 0.16606165 -0.24336159 0.38413283 0.23321766 0.17048195 -0.26664564 -0.08679112 -0.18140256 -0.28184018 -0.5716339 0.10199329 0.4313116 -0.054155614 -0.16772464 0.43544346 0.085648894 0.018742986 0.08308403 -0.056284405 0.03269694 0.23323883 -0.30467334 0.16718188 -0.3888753 0.336602 -0.23592086 0.3402066 0.15329526 -0.1002103 0.119379245 -0.0070063956 0.20924155 -0.06977369 -0.11133044 0.069921345 0.037917238 -0.13898093 -0.32150766 -0.29203722 0.48473772 -0.2609674 0.3244955 -0.035228565
as 0.13991056 -0.07848902 -0.08033063 -0.18060994 0.19665696 -0.14691846 0.37159628 0.09232769 0.3494906 0.2095454 -0.17467001 0.8048973 0.24684772 0.07140031 -0.2900544 0.00040504086 -0.006713004 -0.08414786 0.1109126 -0.02605223 -0.30725503 -0.11522814 -0.51653755 -0.13685721 -0.13771814 0.12297062 -0.037459385 0.4190135 0.09207769 -0.056683935 0.33432597 -0.16991131 -0.28706932 0.043720387 0.15346022 -0.49643052 -0.26381496 0.006306935 0.38154793 -0.41743904 -0.21194087 -0.19422504 -0.12149754 -0.44935903 -0.14108227 0.18621516 -0.05468768 0.16227582 -0.3430255 -0.07449702 0.23158905 0.1262202 0.2308986 0.45820236 -0.10520248 -0.009403462 0.25486866 0.17113319 -0.31197807 -0.18516979 0.26292533 -0.19197272 0.08814358 -0.016251782 -0.08406072 -0.21067299 -0.046940647 0.14892863 -0.40110424 0.2718008 0.36143556 0.31131798 -0.31834263 -0.18936285 -0.016840123 -0.10211576 -0.2274838 -0.10583023 -0.0961909 -0.01748965 -0.22731437 0.37122115 -0.30435526 0.18881305 -0.13527662 0.2518106 -0.039808363 -0.09535572 -0.2917258 -0.032422125 -0.5049191 0.13487601 0.090530336 0.04368313 -0.14380483 -0.40339482 0.42953062 -0.17048645 0.18903892 -0.096004054
use 0.21577665 -0.12127309 -0.04085414 -0.18162662 0.041688308 0.066380575 0.22483571 -0.19717072 0.18413474 0.000761823 -0.18133748 0.2433289 -0.18355113 -0.064508185 -0.24085799 -0.038076315 -0.12060478 -0.02779668 -0.09110725 0.29137918 -0.06984744 0.15515448 -0.2555278 -0.38822195 -0.04539111 -0.21726637 0.18942167 -0.20613024 -0.10163429 -0.22180669 -0.10996858 -0.08891665 0.03881644 0.5068911 -0.15180539 0.26337433 -0.26094958 0.06479315 -0.0013360562 0.066936694 -0.45968723 -0.29559198 -0.0045278147 -0.19654182 -0.48291248 0.34988493 0.19673817 -0.09075953 0.35059452 -0.08697367 0.21700194 0.3299693 0.0090061035 0.15320092 -0.09433393 0.027582226 -0.086352184 0.24019852 -0.421271 -0.15756312 0.0005717401 0.22034332 -0.121526085 0.118563816 -0.3636532 -0.10169144 -0.122494206 -0.029235445 -0.16753158 0.07803145 0.28680754 0.26000762 0.022380592 0.3457426 -0.11960893 -0.21214981 -0.15860175 0.17956734 -0.14919288 -0.24131712 -0.64601666 0.20808524 -0.5206428 -0.062103827 -0.093072966 -0.035328057 0.08602737 -0.07438797 0.14314097 0.044593632 -0.05569691 0.4783867 0.37951547 0.009190555 0.26771018 0.10720783 0.23462217 0.029999591 0.23349045 -0.23825108
sir 0.2411668 -0.44520053 -0.03959744 0.16475096 -0.10267444 0.20873022 0.16245785 -0.2566967 0.2897227 0.11761346 -0.05319626 0.095287874 0.038855772 -0.19571587 -0.112351 0.14687641 0.16085815 0.009320008 -0.018409055 0.3718444 -0.49465528 -0.29455486 -0.27683315 0.069435574 0.12300771 -0.42007855 -0.27081755 0.05847627 -0.25741926 -0.023639703 -0.061153825 -0.04530331 -0.33843076 0.5883948 -0.42038217 0.15961334 -0.2715502 0.16660862 -0.18711556 -0.29739118 -0.35848004 -0.22340725 -0.05301928 -0.3074908 -0.22647984 0.063488446 0.25801376 -0.1508383 0.18725003 0.016272252 0.29400358 0.27383792 0.27853966 0.4934366 0.180323 -0.11855407 -0.006507945 -0.07051864 -0.26585817 -0.33854762 -0.007109464 0.21362008 -0.44360536 -0.10682555 -0.6090913 -0.0014758289 -0.26304963 0.16996619 0.23362263 0.20815231 0.13912244 0.5781303 0.21698123 0.23719709 -0.20230861 0.04438261 -0.002495108 0.020972675 0.059119716 0.007977921 -0.21756642 0.38629457 -0.46324825 0.183664 0.049862165 -0.33428666 -0.09101258 -0.23325941 0.19149624 0.08631271 -0.12417404 0.31436568 0.030399049 0.18765634 -0.0978887 -0.3697746 0.029940734 -0.23191479 0.33146158 -0.3597813
can 0.24957111 -0.11899952 -0.16566059 -0.23943529 -0.3319145 -0.2400243 0.44807762 0.0019514349 0.38369352 -0.035344947 -0.25048825 0.15439112 0.10007375 0.046407785 -0.051796827 -0.021837166 0.0022513464 0.2825681 -0.10666677 0.038808715 0.15212423 0.019833129 -0.08131681 -0.09775736 0.07026205 0.21910271 -0.16564018 0.1743329 -0.05959422 -0.2259955 0.04321327 0.06870588 -0.1720463 0.46347284 -0.08783758 0.12658514 -0.47824317 0.041598383 0.06292792 -0.15581 -0.3524928 0.0314373 0.028547669 -0.26265258 0.053000074 0.28277305 0.16141732 -0.16995704 0.52280575 -0.062036928 0.2979381 -0.05005439 0.26621827 0.35037875 0.33404824 -0.24561752 -0.047798973 0.18667194 -0.33006307 -0.012188569 0.007668721 0.18726076 0.014007668 0.006924866 -0.2699907 -0.31800953 -0.27652073 0.008750604 -0.113996744 -0.059423126 0.0773232 -0.14652401 -0.14343765 0.12075246 0.051229537 -0.1083102 -0.30175364 0.20956112 -0.3706775 -0.033331864 -0.55511147 0.28592196 -0.4194929 -0.060181454 -0.05057326 0.052743483 -0.0624234 -0.18362153 -0.0021445805 -0.020025069 -0.12923071 0.5031063 0.059801225 0.27240422 0.25658453 -0.16445413 0.3418938 0.12991893 -0.014355125 -0.31268838
do 0.30234542 -0.13486604 -0.14273268 -0.025018476 -0.05623153 0.026052454 0.29601267 -0.17091703 0.36326185 -0.33583742 0.0013991252 0.5085718 0.0065803463 -0.31410328 -0.018849516 -0.05487569 -0.010190301 -0.19703361 0.12798336 0.2646137 -0.1494672 -0.0003750755 -0.03168712 -0.25736487 -0.049640484 0.041029908 -0.1296659 0.14724344 -0.18551391 -0.14950797 0.22872025 -0.06257314 -0.11903609 0.20446895 -0.066472575 -0.31496733 -0.3366446 -0.05490895 -0.12953229 0.002778341 -0.21304063 -0.034030177 0.46807203 -0.09565122 0.19951029 0.36072662 0.21857639 -0.06737149 0.094245054 0.2046499 0.30630088 0.033725366 -0.12844124 0.6462274 0.09363785 -0.23091781 -0.15381815 0.1927611 -0.524931 0.18572336 -0.2514289 0.2262898 -0.02741392 0.21500275 -0.112804726 -0.33788347 -0.37690496 0.16661379 0.02961874 -0.112596296 0.41832212 0.12161787 0.24788022 0.23515524 0.13364123 -0.27275503 -0.29914847 -0.0023729925 -0.42493945 -0.079546966 -0.68331623 0.14469238 -0.17282528 -0.014425916 0.14587569 0.06759413 -0.12349699 -0.05695907 0.13129838 0.042681433 0.11122268 0.29787862 0.28662843 -0.23569782 -0.23768668 -0.19787268 0.34948346 -0.043848157 0.17756431 -0.2156221
but 0.27842927 -0.19260179 -0.09699107 -0.02968371 0.0083875405 0.3786243 0.22733131 0.09887049 0.2718508 0.098477244 -0.08610433 0.2523064 -0.096622355 -0.15060927 -0.04566702 0.17410913 -0.10660609 -0.23365119 0.042494148 0.09908709 -0.2702735 -0.08844193 -0.11632507 0.040620036 0.15675056 0.035873115 -0.31678924 0.3137711 -0.07016564 -0.16204032 0.18659583 -0.16010495 -0.043096244 0.12378778 -0.23127544 -0.28576544 -0.32681742 -0.07049226 -0.108743735 -0.21767911 -0.2777276 -0.18694721 0.21715887 -0.3714214 0.14744371 0.29115394 -0.2208647 0.06780288 0.15514271 -0.035509937 0.2613519 0.33048773 0.21917322 0.47462928 -0.073622495 -0.10779822 0.05447375 0.110180706 -0.2830502 0.08841682 0.04663196 -0.100860834 -0.0891108 0.08659104 -0.041437507 -0.3259612 -0.11719523 0.23922879 0.10699087 0.09917689 0.077561036 0.2281586 0.18847926 -0.1104467 -0.23618661 -0.02604536 -0.13350798 -0.031988706 -0.28063348 -0.024877686 -0.39212066 0.14377809 -0.18133423 0.17093895 0.19596587 -0.20572485 -0.062096074 -0.16867067 -0.21921504 -0.22741154 0.051688362 0.3622086 0.35447028 -0.0822208 -0.45184374 0.061006106 0.14744386 -0.39047235 0.16939172 0.1923778
that 0.20196606 -0.122167975 -0.19522873 -0.104220495 -0.045831867 0.15583088 0.2137814 0.14487866 0.31816185 0.12945257 -0.031722844 0.2389811 -0.1609166 -0.06628194 -0.0017707177 0.13700464 -0.05271062 0.13792092 0.0787441 0.23317032 -0.107248105 -0.05778137 -0.29033536 -0.04407283 -0.037440084 0.07766871 -0.16157489 0.25462776 0.060726803 -0.24380329 0.2185682 -0.026820868 -0.23098731 0.3296272 -0.011015633 -0.101689756 -0.40875804 -0.018055284 0.0619011 -0.25605032 -0.14785337 0.13572383 0.059093643 -0.436841 0.060988426 0.08114558 0.03239728 0.051360562 0.09487114 -0.15474427 0.17061433 0.19086578 0.22792019 0.43496498 0.075999 0.0043548034 0.12085341 0.20162348 -0.2389066 0.07045252 -0.005630943 -0.009379853 -0.07104952 0.09745752 0.072002605 -0.38094646 -0.25173187 0.19693325 0.1362456 0.06642123 -0.0012986033 0.11856616 -0.0897014 0.24405904 -0.053051326 -0.07719565 -0.2284608 0.013172322 -0.36168393 -0.20483588 -0.5354887 0.38069126 -0.2876136 0.1016488 0.066997014 -0.10257053 -0.041642167 -0.15434627 -0.13584284 0.087392285 -0.11157649 0.36590478 0.10959157 0.098690204 -0.24221572 -0.46257535 0.16883093 -0.1408957 0.16565317 -0.14297463
will 0.24124478 0.0018300455 -0.36160228 -0.5147955 -0.10532131 0.18544859 0.12827475 0.48886156 0.26377204 0.19690624 -0.11596282 0.15166731 0.021297617 0.05281282 0.2058615 0.17811435 -0.15978555 0.2058947 -0.0054219845 -0.12885043 -0.26369995 -0.027870866 -0.38698983 0.0349712 0.049493138 -0.013730005 -0.19016333 0.4082651 0.2634144 -0.27735054 0.196518 0.07499491 -0.24794306 0.2058214 0.011185018 -0.35067478 -0.46619198 0.03785647 0.06942984 -0.23036861 -0.13111335 0.1978176 -0.13092133 -0.7295172 0.28088096 0.22226076 -0.24773195 0.07183867 0.047533713 0.03208624 0.23271988 0.040185925 0.20542541 0.3110386 -0.09538341 -0.3717952 0.14995731 0.15508868 0.021739379 0.1685373 0.09090441 -0.04778736 -0.12649615 0.07443072 0.14999552 -0.38649273 -0.1366326 0.09947034 0.23968443 -0.19276886 -0.31018412 0.023991466 -0.19224845 0.0013307108 0.03016209 0.113362476 -0.14398234 0.1239996 -0.5194641 0.04344069 -0.45930758 0.39216667 -0.1319127 0.14509314 0.07995454 -0.035973266 -0.19429806 -0.10334006 -0.18257362 0.06916998 0.08318887 0.43690312 -0.14941885 0.040186744 -0.34015223 -0.6358191 0.4832296 -0.20552891 0.27126908 -0.121928915
please 0.05203998 -0.07541715 -0.3300163 0.11644844 0.16328445 -0.15138432 0.30880588 0.20381775 0.60600716 -0.28738573 -0.26492372 0.6597749 0.23233363 -0.14908405 -0.173946 -0.22821738 -0.21605702 0.31075636 0.18851978 -0.12382614 0.09952174 0.027538557 -0.3497672 0.21583845 0.05253497 0.0977649 -0.235281 0.14474759 -0.20462963 -0.10152464 -0.26332897 0.06816679 -0.5576496 -0.08680652 0.09076894 -0.27647272 -0.47917923 -0.1917084 -0.08512364 -0.27231523 -0.47137794 0.094589435 0.18839568 -0.3977697 -0.017774832 -0.0045860833 -0.048928622 -0.14419052 -0.21952657 -0.086662486 -0.0952557 0.022503207 0.27674296 0.3759794 0.28789133 -0.5209466 0.110294625 0.47611704 -0.362685 0.070058614 0.40711436 0.13623588 0.24647737 -0.029165043 0.04968415 -0.059656855 -0.318812 0.39005327 0.040103465 0.104019806 0.10305934 -0.002354966 -0.37669918 0.36823145 -0.0304853 -0.00630977 -0.18710436 -0.009865166 -0.767338 -0.15362154 -0.5212218 0.46884617 -0.3471971 0.002494062 -0.1157381 0.0014044266 -0.32107538 -0.47982997 0.071522035 -0.043062802 -0.39143202 0.43088505 0.11250259 0.083921194 0.07599981 -0.37097365 0.40344042 -0.1586926 -0.014917303 -0.1257042
this 0.08303427 0.006382314 -0.21481192 0.19592498 -0.016379997 0.043572202 0.23997931 -0.111411095 0.5598602 -0.05432068 -0.043988917 0.27773583 0.1832772 0.039804388 -0.16515577 -0.13691886 -0.06301822 0.11084783 0.11006466 0.43991295 -0.03548943 0.048044212 -0.06481029 0.25596946 0.13453673 0.11701371 -0.27567342 0.22033256 -0.18478298 -0.04938926 0.027602311 0.07357233 -0.2608339 0.18595615 -0.020542823 -0.12483814 -0.30107856 -0.11318179 -0.13332634 -0.33208546 -0.13649921 0.06353516 0.29364756 -0.18697685 0.31927747 0.044890475 0.08680636 0.0063171163 0.105969936 -0.025480805 0.20372647 0.015964376 0.21324408 0.39933178 0.2289288 -0.1256529 0.03618889 0.347812 -0.12134047 0.12849125 0.14618813 0.19099575 0.042495783 -0.021122294 0.08661239 -0.28187317 -0.15372916 0.09885706 -0.0191158 0.21585912 0.068291605 0.08269012 -0.046084553 0.37682554 -0.2147958 0.20589526 -0.09110649 0.101579934 -0.19574174 -0.06926327 -0.5079423 0.39843783 -0.26269737 0.035092514 0.07246573 0.00059698976 0.16488029 -0.17320879 0.08912156 -0.044231795 -0.089215904 0.097113684 0.17012562 -0.056007247 -0.15753824 -0.19125143 0.33781025 -0.21861398 -0.09771058 -0.18098295
with 0.2763179 -0.09327188 -0.101903185 -0.1289755 -0.02027744 0.2531717 0.46776098 0.25817814 0.20323019 0.19892116 -0.19297877 0.38322303 0.2682362 0.08111283 -0.20477135 0.0070192176 -0.06268522 0.04124223 -0.07704051 0.22636078 -0.0050942013 -0.039074894 -0.30583248 0.09854235 0.07471584 -0.046140105 -0.20733193 0.12689824 0.013998183 -0.16530444 0.14015499 -0.02642392 0.04749979 0.06569347 -0.18932414 0.0805969 -0.34983563 0.08667023 -0.023654832 -0.20270814 -0.32920468 0.00155429 0.10174943 -0.42004654 0.14401804 0.29251394 -0.12632942 -0.12064677 0.21454589 -0.059107088 0.26069105 0.2554831 0.4102732 0.3132282 0.16763814 -0.13090454 -0.085382074 0.22412707 -0.23464487 -0.2351356 0.041161474 0.16044255 -0.044343684 0.29616886 -0.16703604 -0.02976702 -0.041191537 0.02726436 0.08938991 -0.03489607 0.15189181 0.21645394 -0.29317722 0.100353636 -0.13285975 0.113841586 -0.07448685 -0.09033518 -0.41153967 -0.0994451 -0.31877482 0.31757048 -0.36132893 -0.049518332 -0.24321213 -0.06104587 -0.08404362 -0.23690052 -0.10935648 -0.15260498 -0.14277309 0.24590948 0.016590709 0.079266675 0.047669213 -0.105445094 0.22644489 -0.26868337 0.26793835 -0.13437101
or 0.3530753 0.010056338 -0.07253197 -0.36328214 -0.03299966 0.20702226 0.17304741 0.10466831 0.101898625 -0.00019839715 -0.041217264 0.4166868 -0.0036490392 0.054221876 -0.25439093 0.22654669 -0.082790904 -0.08818327 -0.09110142 0.2928863 0.031149343 0.116099454 -0.3321198 -0.06865171 -0.13143575 0.13549353 0.05196046 0.009693588 0.13840137 -0.18736683 0.16241857 0.1737965 0.03823383 0.48280844 0.059624728 0.11614517 -0.374263 -0.032897025 0.25925153 0.11377633 -0.30091035 -0.24074066 -0.12843692 -0.2951767 0.13758348 0.473082 -0.03635525 0.015856503 0.296866 -0.03201808 0.35324866 0.22297996 -0.0096558975 0.3529257 0.0812335 -0.006981209 -0.40285203 0.14659895 -0.43490386 -0.20896812 -0.2380708 0.14515853 -0.109836325 0.18888123 -0.011899918 -0.44646993 -0.14390224 -0.22296755 -0.043226294 -0.20055528 0.35801518 0.08758788 -0.042462166 0.06916962 0.009464069 -0.15383247 -0.17517912 0.2440244 -0.4031261 -0.18044007 -0.5847302 0.28621218 -0.23168203 -0.008617728 0.1389675 -0.12689483 -0.013719582 0.086236686 -0.17533381 -0.09701203 -0.10962487 0.09518421 0.18209107 0.017741127 0.00053743395 -0.27641442 0.22005226 -0.1467878 0.25908205 -0.11486037
video 0.30891022 -0.07764256 -0.119135596 -0.008765147 -0.65218157 0.06803158 0.22589025 -0.23852365 0.61666286 -0.3319391 -0.17370786 0.13386159 0.12909701 0.20981902 0.12793924 -0.003917206 0.006705361 -0.050441697 0.12805066 0.052701898 -0.7123137 -0.3010059 -0.42937633 -0.29982418 0.044314675 -0.17866658 -0.041769847 0.2146328 -0.01390313 -0.076770894 -0.15750383 -0.17789246 -0.24949421 0.16355981 0.01593371 -0.17196888 -0.18215756 0.060961094 -0.17256196 -0.5205958 -0.21982919 -0.28765178 0.10097416 -0.32373413 0.6268903 0.60348046 0.36554438 0.09489828 0.122756 0.065004595 0.010723436 -0.19082403 0.13878532 0.6518412 -0.058297332 -0.19989283 0.07625949 -0.0068479935 -0.42020383 0.11297343 0.13120244 -0.09157287 0.05759108 -0.09405805 -0.17033973 -0.45134962 -0.7227506 -0.17365833 -0.06885965 0.015596714 -0.039621856 0.3633656 -0.04586364 -0.25259638 0.19488908 -0.0029266416 -0.2288058 0.17355578 -0.15083896 -0.116644844 -0.6000202 0.16496219 -0.24916786 0.29280084 0.046334818 -0.11626106 0.08210779 -0.097902685 0.08572613 -0.16816773 -0.5077811 0.16657543 -0.05754532 -0.017214889 0.06849672 -0.13495702 0.55755806 -0.19495416 0.44570264 0.23079225
team -0.0020384728 -0.14406149 -0.43481517 -0.32104164 -0.235848 0.05951391 0.23936032 0.05631787 0.5551805 0.0059759323 -0.046766177 0.11131705 0.34610668 -0.29084942 0.18838842 -0.023778997 -0.03540529 0.026588755 0.08096941 0.13525327 -0.46129385 -0.17229854 -0.5149291 0.086109646 -0.0017910515 0.13569944 -0.1284874 0.2407997 -0.082804196 0.20855127 -0.44813186 0.20726229 -0.07757417 -0.07714655 -0.02779778 -0.31096756 -0.19832547 0.007461692 0.0024986041 -0.3718949 -0.28116316 -0.08248405 0.005441773 -0.24391234 0.14065406 0.31954834 0.37472212 0.09275908 -0.07394146 0.114618786 0.053383812 -0.10100222 0.11974007 0.36450619 -0.17858101 -0.5249237 -0.18447545 0.13024975 -0.12130099 0.28140038 0.06511767 0.14205268 -0.006743644 0.20855495 -0.08391928 -0.11390281 -0.23912445 -0.15729617 -0.016847318 -0.07145991 0.13810551 0.39172423 -0.030635135 0.11789941 0.13898584 0.1057611 0.049313832 0.009788604 -0.6187858 -0.29008234 -0.30945197 0.3962836 -0.48890424 0.5377767 0.022127248 -0.17259614 -0.056635845 -0.3799169 0.1259318 0.077683784 -0.18423139 0.16119088 -0.19870241 -0.29459366 -0.17763753 -0.47388062 0.18429323 -0.14700584 0.1987521 -0.04613402
get 0.17635497 -0.25488138 -0.16843858 0.0018394735 0.009285596 0.18556213 -0.020693433 0.039047565 0.35813144 -0.103058524 -0.10248979 0.25912574 0.04337932 -0.18644203 -0.043363437 -0.051413745 0.09719863 -0.02309601 0.13004662 0.22176525 -0.07383278 0.07320357 -0.025901819 -0.12871721 0.25605974 -0.083115585 -0.28516078 0.22067672 -0.040301617 -0.15764894 -0.015275455 0.12345568 -0.19096841 0.24304704 -0.0831356 -0.35147652 -0.31801465 -0.099852726 -0.09436173 -0.17417412 -0.09081182 -0.07883727 0.2082486 -0.2727267 0.14259775 0.1497921 0.13438141 0.014568567 0.04947869 0.17109369 0.28517354 0.15259303 0.22164279 0.21751238 0.07513904 -0.29490793 0.06250617 0.25662783 -0.12005724 0.21894898 0.20642334 0.29401648 -0.19178213 0.017646618 0.06737034 -0.316587 -0.019521322 0.3653601 0.069758356 0.20257263 -0.028367953 0.0843606 0.07513683 0.07942305 -0.24429037 -0.007531176 0.03914263 -0.07124452 -0.21101469 -0.029185027 -0.44861886 0.2610128 -0.17020181 0.1403616 0.06015558 -0.25981838 -0.115075015 -0.3178835 0.037966944 -0.10871373 0.23068528 0.23356092 0.38183594 -0.2521288 -0.41611412 -0.24452333 0.21742085 -0.335451 0.00425366 -0.13757734
regard 0.11539455 -0.22607787 -0.1729235 -0.1243681 -0.20670876 0.14130121 0.14936678 0.09486285 0.38055605 0.11279016 -0.105213866 0.28127393 0.5493861 0.14356117 0.011001731 0.10729083 0.109218456 0.2943878 -0.046181764 0.2687045 -0.29437816 -0.37044725 -0.37122762 -0.07193425 0.1571037 -0.42525837 -0.07327715 0.13187605 0.013409701 0.028923096 -0.071180284 0.29956415 -0.2896844 0.35547364 -0.058595527 0.06882702 -0.24675925 0.26111957 -0.03066984 -0.37604362 -0.2998947 -0.016023032 -0.10575676 -0.69147676 -0.07564529 0.28554493 0.30553147 -0.18309607 0.0977553 0.08239081 0.30036652 -0.06998298 0.27293363 0.4188441 0.18349871 -0.3702785 -0.25137612 0.18754356 -0.001370747 -0.21802814 0.117030054 0.13182756 -0.40680683 0.1267081 -0.47034162 0.043113172 -0.3335902 -0.07213198 0.060957022 0.040705923 -0.003668455 0.37190086 -0.17807993 0.22488578 -0.050420746 0.14976175 0.081067905 -0.05314788 -0.30855003 -0.012793103 -0.1636622 0.42830434 -0.60863656 0.028524872 -0.13681144 -0.011047505 0.03217935 -0.18022294 0.15547349 0.2015922 0.02357077 0.27298877 -0.33803558 0.04578057 0.10457546 -0.41887125 0.107284315 -0.101091325 0.27526173 -0.41783854
code 0.4271811 -0.17570019 -0.17236471 -0.03837788 -0.30301815 0.07139983 0.45663917 -0.22933199 0.50774807 -0.1215279 -0.34158072 0.06600252 -0.13079698 -0.023250766 -0.03927876 0.023477416 -0.17326358 -0.075346515 -0.035365958 0.0034872245 -0.50898886 0.010335104 -0.3165208 0.04501498 0.24788149 -0.19222425 -0.17815715 0.25486916 -0.22163463 -0.2123259 -0.14137718 0.024406828 -0.20742126 0.49856174 0.014207556 0.011069615 -0.4301328 0.06526006 -0.100051 -0.18529345 -0.307644 -0.23248975 0.13835002 -0.17784876 0.015790824 0.42172578 -0.059946544 -0.09632459 0.04577831 -0.027205108 0.060059 0.19597033 0.28193793 0.39348474 0.015394253 0.05123155 -0.15717724 0.26025784 -0.3291372 0.17593268 0.2845206 0.021986345 -0.09019435 -0.044537816 -0.2066199 -0.30369556 -0.3717381 0.13912234 -0.03283181 -0.094659045 0.035273995 0.3186178 -0.033495676 -0.069507614 -0.0023092448 0.090676434 -0.24647585 0.12838253 -0.07848066 0.20136686 -0.44003585 0.092496134 -0.30076873 0.1507547 0.10721252 -0.018287966 0.04982405 0.07916049 0.11719503 -0.26938972 -0.3030198 0.3940059 0.39236808 0.023028381 0.010560934 0.2202831 0.31690565 -0.20336467 0.14579208 -0.016959345
when 0.2948536 -0.26654366 -0.058920242 -0.19309129 -0.1428584 0.20658115 0.109822884 0.194726 0.307298 0.051396534 -0.15188478 0.1994351 -0.01976418 -0.08383847 0.11242657 0.28584483 -0.14534163 -0.2055534 0.0918031 0.23093861 -0.3678674 -0.056466278 -0.12131609 0.03621118 0.41436216 -0.1497157 -0.26561168 0.42504394 -0.0034115487 -0.34801114 0.25655305 0.16562608 -0.11257768 0.26320988 -0.3600783 -0.17652637 -0.4065676 -0.12828405 -0.031653833 -0.15055956 -0.22754021 -0.02764896 0.03908139 -0.23083343 -0.012667965 0.37163177 -0.056098863 -0.07700471 0.28620937 -0.15029359 0.46203518 0.35570958 0.28454724 0.21177317 0.1627451 0.05355177 -0.029010048 0.06354418 -0.07649053 0.113126084 0.13593446 -0.16118722 -0.24609603 0.06400188 -0.19943747 -0.31836057 0.08969561 0.16598558 0.3162668 0.1660696 -0.11166021 0.32014358 0.041395314 -0.15158789 -0.33024594 -0.076855265 -0.047900796 -0.12920463 0.03978876 0.09323997 -0.12334311 0.23099369 -0.13165648 0.15116364 0.0035166515 -0.11654904 -0.09732879 -0.2100198 -0.10758092 -0.19157235 0.0328885 0.26438934 0.24840122 -0.02533277 -0.37768787 0.018178778 0.24221937 -0.19106293 0.034712553 0.06425127
work 0.48897916 0.042579036 -0.07008881 0.13995965 -0.116078414 0.58163595 0.51650786 -0.04235132 0.5827429 0.23983759 -0.1294922 0.28041902 0.0053745233 -0.040912904 -0.41674876 0.113567404 -0.2140753 -0.2159686 -0.0075673973 0.18286085 -0.35075003 -0.21943235 -0.31583518 0.010529892 0.059690006 0.18615021 -0.25103796 0.028815225 -0.2699846 -0.13838446 -0.049897343 0.0011893357 -0.06273068 0.08710285 -0.63373834 -0.20556346 -0.27970502 0.048969798 -0.08285243 -0.28669375 -0.32377252 -0.22634171 0.5109525 -0.38170785 0.16804025 0.49558535 0.016928874 0.0738593 0.2931054 0.10985062 0.24340214 0.3079213 0.06938292 0.47104242 -0.2712895 -0.2796512 0.101151444 0.07042208 -0.3063206 0.16281782 -0.14070812 0.11519294 0.13057443 0.2344129 -0.1382654 -0.14648047 0.07970333 0.20691611 -0.009965973 0.082898915 0.22796966 0.31530556 0.36251304 -0.062107217 0.040235206 -0.064792305 -0.121091664 -0.006956876 -0.14077225 -0.04378466 -0.5903716 0.20248008 -0.32619354 0.22052695 0.1494462 0.0034056108 -0.18688585 -0.1552495 0.10543914 -0.20800285 -0.007631698 0.42060587 0.6488336 -0.12262479 -0.4874114 0.03598655 0.1134385 -0.29817593 0.14427863 0.27431467
if 0.30052203 -0.0768095 -0.16738483 -0.20081171 -0.043922517 0.08936435 0.1378777 0.13101812 0.4150902 0.0907551 -0.054418962 0.26049167 0.073956825 0.023230603 -0.016119506 0.037847638 -0.03667918 0.11539854 -0.029724462 0.27713653 0.023514057 -0.014115662 -0.11633709 -0.014445108 -0.006591684 0.18592793 -0.25324187 0.20915398 0.07076373 -0.14860626 0.24093096 -0.024972774 -0.2032233 0.39070618 0.03307183 -0.107426554 -0.23984373 -0.07225791 0.06487388 -0.19249007 -0.13622668 -0.02484915 -0.030710107 -0.4145537 0.30394277 0.10205709 -0.046180375 0.03836951 0.30130813 -0.038380172 0.24840768 0.14849743 0.032963503 0.4717518 0.12384759 -0.12810025 0.027294125 0.019903125 -0.36701134 0.010674151 -0.032033704 0.10502636 -0.029495943 -0.05435524 0.09395454 -0.4555462 -0.11327847 0.26967198 0.13771746 -0.0022031835 0.11655904 0.033582818 0.1116842 0.095063604 -0.15812026 -0.11909661 -0.22419925 0.23581597 -0.36158615 -0.16244948 -0.4028059 0.2707752 -0.20800976 0.06780174 0.07860111 -0.12645897 0.0071384124 -0.16889192 -0.092744686 0.012438907 -0.120058574 0.1285743 0.027824804 0.108904846 -0.32988992 -0.32427433 0.356872 -0.26519802 0.16295122 -0.14458308
give 0.23238738 -0.26475713 0.07624787 0.010913317 -0.014469939 0.1529118 0.2696772 0.012444455 0.34068766 0.17989975 -0.23243663 0.30395934 0.014247931 -0.056744147 -0.22524366 0.031145465 0.12965451 -0.115904555 -0.0945971 0.2263081 -0.13817154 0.09488868 -0.30722225 -0.14625181 0.14923845 -0.005586023 -0.17944255 0.29373017 0.079718955 -0.26271534 -0.04317659 0.050719198 -0.107043795 0.25976312 -0.018309532 -0.19014072 -0.558807 0.16737895 -0.028899893 -0.19862245 -0.06457307 -0.1415646 0.08614922 -0.25231716 0.080070935 0.36468816 -0.11265025 -0.0038693128 -0.100398056 0.076018736 0.41378382 0.26764503 0.33421618 0.30361393 -0.12347646 -0.0335942 0.0934906 0.28575885 -0.15225783 0.00344367 0.048356906 0.1889811 -0.14109756 0.13065802 0.0072655235 -0.2529445 -0.1342568 0.10457161 -0.16723852 0.31936234 0.08934846 0.117497176 -0.047074866 -0.09050023 -0.07230363 0.02996275 0.00609172 0.008574483 -0.109001175 0.18449496 -0.3577019 0.24714863 -0.2542597 0.044296533 -0.0823486 0.00081311946 0.02335223 -0.022426458 -0.26631102 -0.13382532 0.10613323 0.2746678 0.4422789 -0.18907686 -0.26350325 -0.07052378 0.16737889 -0.20682296 0.16497906 -0.069139026
so 0.17293411 -0.051118534 -0.13000697 -0.15708306 -0.08286674 0.044098597 0.3063595 0.0267299 0.2615364 -0.022970168 0.050191056 0.24490973 -0.046404973 -0.2461081 -0.13970712 -0.0033777459 0.053234678 0.115188874 -0.015720606 0.3023562 -0.0051988754 -0.021037994 -0.23997954 -0.120946996 0.021301318 0.32223958 -0.13700944 0.076039486 -0.03416982 -0.14685296 0.09619299 -0.0691495 -0.19561352 0.4673994 -0.21554004 -0.0661809 -0.35927242 0.2087967 -0.10565978 -0.18503903 -0.24764809 0.092457965 -0.035307568 -0.17442286 0.07403387 0.23848775 -0.0091304 -0.058822468 0.16653585 -0.13843723 0.22666225 0.315856 0.08797288 0.3420747 0.11944043 -0.19167255 0.075109676 0.20495193 -0.3927802 0.085077725 -0.13535476 0.21214753 -0.05154489 0.1845247 -0.06337028 -0.4202086 -0.2207028 -0.050329562 0.07714479 -0.07967685 0.15093617 -0.0013438863 0.15520555 0.12759489 0.08253108 -0.14112277 -0.3893155 0.24069689 -0.3933703 -0.06548177 -0.6047208 0.4036905 -0.0411171 0.06249697 0.047159098 -0.07983763 8.816318e-05 0.013134954 -0.13197312 0.06603501 -0.084449135 0.26181635 0.29904804 0.09635569 -0.14015356 -0.33860263 0.20493811 -0.09493317 0.091524564 -0.21449731
from 0.22470132 -0.3491566 -0.22616902 -0.4147337 -0.07298377 0.09867245 -0.003943757 0.1891506 0.1294227 -0.01966369 -0.18720083 -0.08368259 0.1405014 -0.39598802 0.2911601 0.17188382 0.013261189 -0.1666219 -0.095357515 0.15111779 -0.060227413 0.02622258 -0.49931392 0.081891455 0.18670431 -0.0053041014 -0.4496265 0.15318026 -0.18420777 -0.2796072 0.022550087 0.16265729 0.0024259132 0.043809567 -0.2817955 0.029670209 -0.36302987 0.078797355 0.036716353 0.0053115515 -0.2873354 0.0015652626 -0.1360637 -0.25463206 -0.1824602 0.4559502 -0.051958326 -0.09204556 0.08997729 0.05998112 0.253669 0.033659134 0.45617032 0.14791611 0.05361543 -0.20785403 -0.10352853 0.089614816 -0.06506214 0.19995847 0.12076842 -0.10381867 0.021533342 0.20999202 -0.2737035 -0.12803374 -0.012643639 -0.09141236 0.4321388 -0.027379418 0.12176471 0.270646 -0.0657425 -0.21882683 -0.45323142 -0.11805805 -0.075430416 -0.021736355 -0.3298436 -0.0068548652 -0.25623912 0.35623404 -0.15339898 0.1254804 -0.29873505 -0.30734485 -0.29241633 -0.17028715 -0.18463707 0.07060775 0.16176985 0.15485005 0.1314653 -0.04287083 -0.0044514914 -0.17662552 0.2676879 -0.22724126 -0.07270855 -0.2657019
problem 0.13920714 -0.082132734 -0.31543666 0.15378822 0.08561443 0.0704365 0.29211462 -0.1881578 0.52502114 -0.036336794 -0.092126034 0.13174081 0.24500807 0.23318057 0.0057847905 -0.1982404 0.12302266 -0.037133582 0.09285915 0.5199811 -0.2467679 -0.38107178 -0.12448014 0.10173035 0.17706981 0.0070253653 -0.37117898 0.27540883 -0.14369525 0.09164853 -0.0061506378 -0.117440686 -0.023054305 -0.06967755 -0.14091355 -0.14325872 -0.29167715 0.23285712 0.013446301 -0.38258588 -0.019960845 -0.11341623 0.45533875 -0.4853901 0.13128251 0.21411607 -0.106385596 -0.26889667 0.33763218 -0.110527284 0.30582565 0.059816215 0.3011556 0.39242813 -0.10309716 -0.0918104 0.3426228 0.25351337 -0.19146402 -0.34468383 0.21665707 0.17337994 -0.25650465 0.0909592 -0.34488022 0.036758326 -0.3086192 0.29438573 -0.13125408 0.22105381 -0.112566784 0.3197734 -0.035105444 0.49730486 -0.24504226 0.27149996 0.036483906 0.16634935 -0.16133083 -0.19555995 -0.4581201 0.37207133 -0.5870785 -0.12835142 -0.10185938 0.040563576 -0.10153397 -0.3708516 0.24997154 0.050134238 -0.013841688 0.32934225 0.076545395 -0.13224804 -0.16715433 0.022279518 0.36755165 -0.21931224 0.014254579 -0.07794557
motor 0.061899997 -0.17179835 0.085491784 0.2773277 0.09314096 0.19290823 0.29171988 0.18250307 0.70300114 0.43068755 -0.3017093 -0.10210127 0.029541774 -0.05571292 -0.24459319 0.122346476 -0.09581351 0.01867427 -0.23708391 0.25311312 -0.44001508 0.17706501 -0.12284869 -0.09187233 0.3270622 0.18660864 0.08565787 0.20581378 -0.09422709 -0.021430599 0.05330109 -0.410712 0.36355874 0.24204235 -0.8532966 0.00034463924 -0.30326834 0.20035721 -0.45148036 -0.11990405 -0.1955539 -0.07696753 0.27064732 -0.15969154 0.028511848 0.604135 -0.14206511 0.16997492 0.6091705 -0.0042390157 0.487309 0.41503766 0.44930935 0.15419567 -0.37840843 -0.11852403 0.26473692 -0.23838052 -0.2775232 0.20317024 -0.13937156 0.14448145 0.26472563 0.065916836 -0.08681445 0.036636714 -0.15087914 0.2678404 -0.08160193 0.28959024 0.106978916 0.28411198 0.1883672 0.4357968 0.10283039 0.2640533 0.07460435 -0.12155518 -0.3993327 -0.13211165 -0.34731767 0.42473277 -0.71403474 0.1855437 -0.15554684 0.26232484 0.22925857 -0.35203254 0.17049253 0.21920577 0.13379171 0.947807 0.34242687 -0.10098123 -0.29287633 0.30219033 0.14796431 -0.006269328 0.24402289 0.21479818
any 0.26785663 -0.024855128 -0.3040795 -0.3825082 0.077045016 -0.003924634 0.41417363 0.04424505 0.18169823 0.0826861 0.07590868 0.15728493 -0.13115615 0.09827269 0.112071455 0.051875725 -0.10515437 0.014561907 -0.02731458 0.23703915 0.050108265 -0.04591597 -0.18262468 0.08161215 -0.299495 0.0607847 -0.23925655 0.21368873 0.026925996 -0.04941615 0.31410536 -0.064623855 -0.03416085 0.40373805 0.2675973 -0.021153541 -0.4223221 0.06911612 0.12506099 -0.351358 -0.0880411 0.095755026 -0.06691397 -0.6101999 0.29288992 0.0023308531 -0.09203048 0.13778286 0.14534391 0.095881596 0.025101244 -0.004772078 -0.023305716 0.465106 0.0878467 0.005039797 0.11667974 0.22369319 -0.17133157 0.094429195 0.17426968 0.20042956 -0.07210467 0.11638922 -0.13328366 -0.35802415 -0.20648164 0.03781307 0.053518698 0.06706866 -0.2495746 0.0065527186 -0.027841281 0.34720126 -0.1302691 0.10122827 -0.072640054 0.22750129 -0.4055305 -0.19239648 -0.7591367 0.3659918 -0.6295887 -0.0025358743 0.29144454 -0.13958009 -0.014140728 -0.31974652 -0.20515887 0.115547374 -0.109595865 0.3398415 -0.02131613 -0.023125354 -0.25433668 -0.22981569 0.4390983 -0.5167413 0.12018762 -0.28515515
robot 0.28487915 -0.2746032 -0.027344348 0.08357627 0.1654901 0.13808538 -0.022300001 -0.04156896 0.5108167 -0.08934343 -0.014365311 0.31974664 -0.0076098978 -0.10894068 -0.119051576 0.1684354 -0.09675564 -0.20784138 -0.12849428 0.37965617 -0.20377457 -0.07928096 -0.22825214 -0.08715437 0.01788045 -0.27744037 -0.19386128 0.24470459 0.056850612 -0.05612248 0.20574456 0.13733731 -0.039651558 0.32577923 -0.4657556 0.017982569 -0.44543427 0.14603482 -0.061587162 0.10678555 -0.28467155 -0.21883553 0.048203655 -0.24254069 0.019858306 0.57064927 -0.23576441 0.0007583222 0.297319 0.09042215 0.3669492 -0.030414063 0.2600462 0.3562687 -0.10177304 0.003555898 -0.10252873 -0.08043549 -0.34751937 0.04539738 -0.17384775 -0.011161334 -0.05964732 0.061570063 -0.31313393 -0.06490371 -0.22758436 0.14804682 0.42669275 -0.0034877965 0.21073586 0.3468425 0.20210928 0.19676109 -0.12868403 -0.24263133 -0.0279381 0.03755861 -0.13471408 0.06525295 -0.29152355 0.2910117 -0.3867115 0.010831451 -0.010306595 -0.013224459 -0.068932585 -0.10819973 0.18554914 0.41945025 0.24080805 0.23109862 0.16906993 0.08695293 -0.372426 0.0011944157 0.3849403 -0.19246627 0.20392178 0.1991647
bot 0.191072 -0.097235054 -0.056899894 -0.2295186 0.14925034 0.07866971 0.041305866 0.07499355 0.34198168 -0.16261905 0.20586202 0.38536745 0.07788752 -0.12622891 -0.121816844 0.18354681 0.056470394 -0.033914894 -0.094917506 0.60860777 -0.39840025 -0.40003845 -0.3631487 -0.05602291 0.04903601 -0.22559074 -0.06792939 0.22842754 0.21686782 0.13811685 0.23805358 0.21696566 -0.008887979 0.38709214 -0.45914757 0.06944678 -0.5956634 0.46115524 0.17772914 0.013854866 -0.26894853 -0.37222263 -0.3358032 -0.044922523 -0.07393381 0.7736589 -0.37220603 -0.31293926 0.22487023 -0.12294328 0.54767424 0.121708214 0.22409041 0.16352068 -0.059651818 0.11111847 -0.08098946 0.13727589 -0.28361195 0.0025105926 -0.1712049 -0.1198693 -0.20305239 0.108181804 -0.39603937 0.17845167 -0.1776839 -0.08728151 0.52672076 -0.2754541 0.14892884 0.48399234 0.14629681 0.11223131 0.13642898 -0.20337714 -0.073506705 0.26158088 -0.22412263 0.07008607 -0.34025952 0.5545736 -0.100541 -0.091957234 -0.030603357 0.121281005 -0.06289133 0.11169703 0.13839515 0.4589621 0.06551281 0.17267638 0.027457489 0.08420069 -0.18371485 -0.17114475 0.40296385 -0.13967218 0.22126447 0.021087054
all 0.018599296 -0.05642159 -0.13814762 -0.2982566 -0.112150714 -0.020987678 -0.05534004 0.14393382 0.41020736 0.1459371 -0.22014874 0.17500955 0.21573444 -0.16153775 0.07370329 -0.048658192 -0.2343767 0.030885963 -0.111606665 0.19647072 -0.3717056 0.017716741 -0.42879245 0.09688069 0.09490795 0.20096655 -0.019190019 0.53134316 -0.07347642 -0.087457374 -0.26261538 0.17117044 -0.02457464 -0.13603258 0.12223175 -0.41038096 -0.4934958 -0.21000065 0.0974806 -0.24608168 0.038936067 -0.100602396 -0.034860086 -0.09434524 -0.03977087 0.4828719 0.14072973 0.02251198 -0.23846678 -0.0057759276 0.3176273 0.098885246 0.07907723 0.3366693 -0.17428367 -0.24031171 -0.07096608 0.2215698 -0.13015704 0.19542195 0.1284481 -0.15209983 -0.061094046 0.17748946 0.16633381 -0.17944324 -0.006404424 -0.20592035 -0.04200927 0.23314823 0.10941478 0.2817323 0.085373215 -0.15562095 -0.12590313 0.037058625 0.06154986 0.05534798 -0.35943487 -0.1620548 -0.09708656 0.2893735 -0.13355877 0.27241603 -0.12555774 0.06523195 0.08965008 -0.20127538 -0.03122617 -0.17172596 -0.08709015 -0.002723636 -0.0054298067 -0.2667963 -0.31521288 -0.24208994 0.2794834 -0.2009395 0.21380839 0.24008392
help -0.023791598 0.03091151 -0.09605315 0.19291377 -0.022551151 -0.18499476 0.5700798 -0.38389188 0.62390757 0.10513959 -0.050415836 0.19088225 0.34585765 -0.11379846 -0.09944785 -0.27126092 0.3366353 0.014395419 0.08801779 0.4892305 0.1279472 -0.11878462 -0.10700049 0.17924438 0.05655814 0.5358055 -0.46834233 0.16066909 -0.23988667 0.20856321 -0.057232972 -0.019931218 -0.09710346 0.15492283 -0.13500047 -0.261045 -0.3755185 0.11785487 0.016018784 -0.34016168 -0.007937556 0.106050506 0.28900045 -0.1187077 0.2995744 0.008716036 0.11682364 0.10559025 0.050672825 0.11291028 0.33051476 0.062112607 0.25993177 0.43322673 -0.122757755 -0.03475936 0.35968637 0.3762557 -0.22756903 0.019754427 0.14332424 0.367956 0.08764462 0.030880824 0.08632249 -0.25954777 -0.18044598 0.028924404 -0.21507323 0.39262527 0.09911722 0.060290586 0.12166359 0.22321142 -0.21960433 0.24226011 -0.13313703 0.19003244 -0.15613203 -0.10593106 -0.552713 0.5406648 -0.43840453 0.07213903 -0.06139536 0.03896865 0.25606275 -0.26993465 0.017614894 0.13019174 -0.14416194 0.10941925 0.39306056 -0.14872381 -0.15693873 -0.31650752 0.32737905 -0.19534901 -0.20202747 -0.25280425
one 0.1142616 -0.19601038 -0.11185145 -0.09789066 -0.114668556 0.26870346 0.21471083 0.2573392 0.41621426 0.3264234 -0.16008137 -0.032441705 -0.08794878 0.023964094 -0.08200332 0.28269178 -0.105100095 0.009007135 -0.28607172 0.10573259 -0.24675843 0.12303281 -0.2581393 0.03224283 -0.0046489052 -0.016738532 -0.090534255 0.19867781 -0.00365126 -0.15997218 0.11944442 -0.18378797 0.12676474 0.12122347 -0.29449353 -0.0062544844 -0.32828334 0.2040485 -0.26544812 -0.16715756 -0.21523944 -0.01903041 0.033791933 -0.41222185 0.110717386 0.36034393 -0.24383062 0.18530902 0.39963114 -0.013668722 0.32239053 0.18504593 0.3336001 0.38230938 -0.15977955 -0.16683896 0.058790084 -0.06206023 -0.2104973 0.03298256 -0.21159042 0.05206088 0.2521584 0.20902632 -0.08946922 -0.08036713 -0.18031563 0.0490531 -0.062069423 0.087475345 0.07113465 0.11513621 0.00023753001 0.18839186 0.11427065 0.08362085 0.05297099 0.013064517 -0.47867322 -0.10401079 -0.45652115 0.32833973 -0.69915706 0.2779429 -0.0009514539 -0.06592632 -0.026323581 -0.17914094 -0.18953821 -0.013618395 0.013347505 0.5987874 -0.08118385 -0.019741427 -0.328104 0.04923797 0.13199463 -0.10916862 0.31497234 0.22832833
by 0.14705908 -0.12251504 -0.10479175 -0.25889936 -0.25952396 0.03775337 0.24107309 0.2611867 0.22703972 0.030137328 -0.24144524 0.14070143 0.038675863 -0.14422584 0.11325491 0.15199435 -0.052970164 0.011559377 0.016578015 0.022508236 -0.10683716 0.10903342 -0.2547342 0.013505333 0.09069425 0.097414576 -0.1210692 0.24856085 -0.032475043 -0.26325777 0.010751765 -0.009285985 -0.07454891 0.14460601 -0.015667152 -0.028649703 -0.40095982 -0.11801527 0.015900947 -0.029668467 -0.3928638 -0.033172365 -0.046498135 -0.22578691 0.0817314 0.288572 -0.027159072 0.055782292 0.2915879 -0.17996557 0.25361964 0.19291712 0.3042475 0.2366201 0.10513531 -0.22540478 -0.06642626 0.16645874 -0.28928855 0.04218879 0.044461597 -0.01500415 0.03344147 0.18285806 0.04048341 -0.3730567 -0.15432231 -0.031886093 0.11708914 0.04464132 0.13588998 -0.015260213 -0.043526236 -0.08769977 -0.1325515 -0.1493711 -0.21011996 0.08158638 -0.4991862 -0.20688906 -0.27276552 0.22191912 -0.20773113 0.14499858 -0.08405709 -0.20617512 -0.03581639 -0.24455142 -0.19660895 -0.3216795 -0.121347904 0.30571887 0.053983852 0.03382396 0.032257445 -0.10670287 0.17917506 -0.05819082 0.19085254 0.061058275
what 0.1825696 -0.25502184 -0.037313215 0.20250377 0.10227453 -0.00033692105 0.075999945 -0.15871431 0.61929333 -0.15150964 0.10371519 0.64423364 0.1304803 0.077455334 -0.5643421 -0.04418907 -0.04053074 0.021078568 0.12313787 0.54583216 -0.065100975 0.15347806 -0.13212074 -0.039781634 0.076358944 0.038157076 -0.20567958 0.2713867 0.10474402 0.074710764 0.15566362 0.27197662 -0.285624 0.3849207 -0.08399895 -0.23564918 -0.3920812 -0.19791591 -0.12786663 -0.26768428 -0.024719946 -0.07592648 0.17162964 0.11432611 0.29653782 0.18487263 0.24775353 0.22426297 -0.17536035 -0.028523127 0.27920696 0.11877223 0.332263 0.42082387 0.5564177 -0.014040273 -0.24392594 0.18021655 -0.31516597 0.1848678 -0.1654871 0.24879913 -0.055025492 -0.00425898 0.07315005 -0.39773974 -0.15112048 0.12542889 0.10231378 -0.029290726 0.25048548 0.28716803 -0.101707034 0.35502756 -0.043984614 -0.082764104 -0.07748221 0.04847049 -0.20665906 -0.23732558 -0.5673961 0.31723827 -0.12648633 0.19699606 0.07861425 -0.012946629 0.17072514 -0.12747738 0.26028767 -0.017677503 -0.19911721 -0.044857804 0.2896521 0.09297883 -0.36642313 -0.6978975 0.30620924 -0.2846616 0.26193887 -0.12928241
there 0.2933208 0.15271555 -0.18807614 -0.46749333 0.20861414 0.40101552 0.10528946 0.096922204 0.28406253 0.07796161 -0.05059194 0.13907157 0.05155497 0.44093058 -0.039052214 0.16677132 0.022574743 -0.013383883 0.13582756 0.31496942 0.14275381 -0.060047183 -0.13151862 0.1073236 -0.10839606 -0.09066799 -0.1276556 0.036293197 0.42199293 -0.46023545 0.28569275 0.16448626 -0.08337047 0.42426515 0.32283577 -0.12814246 -0.3537943 0.0030968701 0.14790995 -0.3884409 0.0432855 -0.18013501 0.0061971038 -0.6112467 0.37964848 0.061251324 -0.43516454 0.06410034 0.18376559 0.277874 0.23773408 0.08995592 0.27784857 0.33831966 0.021884384 0.1558736 0.073136605 0.195577 -0.062341534 -0.15945572 0.20163779 0.24793187 -0.28510758 0.011109209 0.10027156 -0.351993 -0.03849092 0.21244863 -0.019792845 0.09174512 -0.34527045 0.017681308 -0.31478208 0.18069346 -0.07882396 0.19848678 0.13364159 0.16355613 -0.3967038 -0.034547254 -0.8465502 0.4165217 -0.56406236 0.06485798 0.2631589 -0.26156718 -0.00014791495 0.015177606 -0.13312255 -0.092108324 0.011320285 0.4175867 0.20999046 -0.09219826 -0.28387687 -0.48930034 0.6729415 -0.5040151 0.36802343 -0.16581248
how 0.25394055 -0.27521974 -0.23774028 0.037921943 0.16332223 -0.027071584 0.210473 -0.2931191 0.43320864 -0.1949257 0.0062836297 0.28460795 0.0220252 0.0095739355 -0.28019577 0.023789736 -0.014282616 0.005644311 0.08918593 0.41753218 0.07405848 0.34480625 0.053214125 -0.072790384 0.21306057 0.070873044 -0.21006475 -0.013538482 -0.02697476 -0.004616303 0.0010565722 0.20875636 -0.08898591 0.43331733 -0.35527244 0.040939722 -0.35715863 -0.11668966 -0.051670093 -0.15995206 -0.30002943 0.06889644 0.1838966 -0.023822442 -0.041977014 0.072789 0.2633395 0.07254949 0.063184336 -0.008432911 0.263946 0.01226512 0.25177172 0.2633013 0.45568487 -0.012014777 -0.22706436 0.19588408 -0.31157336 0.17080165 0.026025722 0.24065652 0.08796116 0.0040597958 -0.12173503 -0.33802423 -0.0979522 0.043831583 0.05931503 -0.043034147 0.34624606 0.14249758 -0.09460985 0.4125872 -0.2505971 -0.14270788 -0.2489122 0.07498298 -0.16989414 -0.0540184 -0.58713394 0.32305273 -0.2309052 0.11868076 -0.084896706 -0.10247824 0.009394921 -0.16429283 0.2804745 0.19723226 -0.030361485 0.08961401 0.24366966 0.21792182 -0.10603882 -0.35599127 0.29701996 -0.04813516 0.0037523622 -0.32050538
file 0.32486415 -0.20843062 -0.19096929 -0.0638142 -0.19413224 -0.37043634 0.31358033 -0.5435512 0.49317887 -0.31408837 -0.3148746 -0.024850182 -0.036924344 -0.15467322 0.28008428 0.037317857 -0.047213558 -0.15583576 0.25753352 0.00914101 -0.33971417 0.102233104 -0.08537203 0.0049869725 0.1989449 -0.371104 -0.080278344 0.3393837 -0.20881991 -0.28756177 -0.34362635 0.042263154 -0.36705652 0.34253168 0.23384355 -0.1373802 -0.39567003 -0.24962579 -0.10982738 -0.031741265 -0.22197577 -0.3639412 0.11625859 -0.066193186 -0.12058028 0.18945022 -0.12266108 -0.03860064 0.06662213 -0.08283671 0.0533284 0.1451084 0.0764325 0.29470068 -0.05551717 0.13182746 -0.079769515 0.44315395 -0.54642606 0.17202511 0.51405257 -0.052822877 -0.1883722 -0.2309792 -0.10101279 -0.46973464 -0.48299354 0.19500038 0.1526444 0.1495095 -0.12522088 0.1830358 0.056958515 -0.19616665 -0.3845946 -0.054285746 -0.1816803 0.2965957 -0.12568921 0.20788138 -0.5596111 0.08809596 -0.19995314 -0.056001533 0.06960194 -0.12994885 0.24456398 0.05288804 0.18095997 -0.4425505 -0.1968211 0.24987552 0.5792953 -0.0353174 0.1619183 0.45297644 0.4477245 -0.30605158 0.05758929 -0.019927924
error 0.26204646 -0.042096425 -0.31210607 0.26103824 0.208619 -0.06669424 0.017031873 -0.46669215 0.43249226 -0.24327387 -0.20753159 0.2747742 -0.052021995 -0.023673313 0.075524464 -0.23895383 0.06444814 -0.06584822 0.42700633 0.3170042 -0.21867616 -0.068243526 0.3018539 0.026060976 0.34078532 -0.3761334 -0.43426552 0.4634781 -0.027871003 -0.10792466 -0.08539761 -0.03299548 -0.42703673 0.09266846 0.0044849147 -0.4780687 -0.43957108 -0.20477173 0.07559326 -0.13235472 -0.120912716 -0.31726623 0.4870939 -0.23017962 0.015930526 0.044324666 -0.1494943 -0.1832524 0.1183428 0.038945988 0.3277825 0.10767785 0.32219893 0.24446918 -0.047697213 0.012694751 0.55609494 0.6021135 -0.00020253325 -0.036488328 0.5510196 0.044686068 -0.32147712 -0.252425 0.06537719 -0.3383707 -0.31934154 0.44566447 -0.03364104 0.48390412 -0.08430248 0.14681509 0.14517823 0.16911535 -0.7090474 0.11450602 -0.02386037 0.1624177 0.16793714 0.055750605 -0.53075796 0.27211258 -0.16364872 -0.2688408 0.10522911 -0.013253414 0.0050968546 -0.14896949 0.33697233 -0.270653 0.17492168 0.23862612 0.62873006 -0.09936541 -0.20056447 0.05963636 0.669358 -0.22348249 -0.16415675 -0.051258445
time 0.26685932 -0.058572885 -0.07653867 0.076278545 -0.22238325 0.2941533 0.008293289 0.11070627 0.6867309 -0.13240011 -0.25455996 0.075767435 0.14879736 -0.054052074 -0.11740271 0.18716848 0.000993563 0.07043594 -0.23394461 0.2317697 -0.24830556 0.1351155 -0.14524958 0.076949835 0.37058458 0.1315832 -0.26398692 0.40611285 0.03407439 -0.14693548 0.17144406 -0.07568197 -0.11628938 0.13457128 -0.03737949 -0.23060045 -0.32464096 0.0752824 -0.40777346 -0.17558186 0.0029758124 0.033819947 0.088064544 -0.28684318 0.41375616 0.3499166 -0.20959285 0.090706035 0.11382217 0.021827329 0.3426791 0.10973966 0.29836926 0.43756005 0.031234112 -0.02898068 -0.02990812 0.043259006 -0.30737385 0.31471327 0.17063116 -0.09192728 0.24257524 -0.04054837 0.331927 -0.48560667 -0.16760921 0.21217376 -0.0005113331 0.116399646 0.04203533 -0.033623803 -0.008116643 -0.020044426 -0.063622996 0.005704818 -0.13365299 0.1886475 -0.27976176 0.17841342 -0.4876918 0.18678646 -0.12883325 0.20681432 -0.025561173 -0.0764525 0.11323505 0.061003916 -0.09606903 -0.025101187 -0.010432312 0.14819118 0.08153534 -0.08378637 -0.42753872 -0.04499264 0.34927174 -0.16949028 0.16949402 0.19442987
sensor 0.19602324 -0.050252862 -0.33772218 -0.06395996 0.038961932 -0.10771247 -0.1661274 -0.2374876 0.21539006 0.34711328 -0.17947274 0.19155455 -0.27779767 0.20514244 -0.23036543 -0.30888018 -0.483623 -0.28257725 -0.27599677 0.47689208 -0.06903517 0.25033993 -0.15318847 -0.32633373 -0.4134875 0.06539509 0.06876861 0.099638306 0.15227975 -0.20259854 -0.30290428 -0.08110348 0.09449018 0.2818075 -0.5137052 -0.22601339 -0.56620723 -0.031766187 0.19449462 0.21936226 -0.32964826 -0.49036 0.11137965 -0.008297778 -0.077735335 0.8662703 0.30904683 -0.035378408 0.38312948 0.47863135 0.16982992 -0.09797212 0.1524152 0.04350094 -0.3102893 -0.14784689 0.07812719 -0.1461487 -0.10205715 -0.3878027 -0.07596411 0.38863167 0.11439757 0.22337824 -0.34129763 0.1283849 -0.18818156 -0.23401739 -0.011136525 0.49310225 0.33064353 0.23043764 0.21110073 0.39386186 -0.24379791 0.06398815 0.26415277 0.3110786 -0.09439666 -0.45251784 -0.7511657 0.4830858 -0.97430795 0.031754963 -0.023033202 0.12145793 -0.14425631 -0.6507199 0.31619093 0.3146782 -0.077030666 0.37351725 -0.04537502 0.058497723 -0.088808656 -0.029590474 0.53252095 -0.1045839 0.114485435 0.36017048
submit 0.3037288 -0.08869269 -0.24978629 -0.2901035 -0.5502478 0.25694942 0.2945006 -0.05563031 0.59643847 -0.4829088 0.00083032076 0.17611165 0.26839402 -0.24790776 0.22805399 -0.033465516 0.16750664 -0.07905881 -0.0066310423 0.019073362 -0.72323745 -0.28497145 -0.5617793 -0.18810602 0.14249271 0.17342113 -0.03282344 0.18325247 0.07784514 -0.009526076 -0.36434838 0.10869722 -0.21775493 0.17726417 -0.02417666 -0.2262739 -0.21058504 0.19268675 -0.39255098 -0.26518768 -0.2935457 -0.051368702 0.079786286 -0.25483227 0.5595108 0.40026885 0.30392137 0.18967581 -0.35848945 0.13069163 -0.07629104 0.1261876 -0.047395423 0.70493656 -0.44063026 -0.36004475 -0.20472127 0.24368948 -0.48768452 0.55511606 0.17882457 0.2348662 0.11318366 0.117598355 0.26746663 -0.62303203 -0.6628095 -0.26125783 0.066950135 0.06011686 0.027170029 0.45183975 0.17318454 0.03364406 0.28462768 -0.07854654 -0.21643153 0.2630486 -0.72216797 -0.14555103 -0.6154752 0.2576848 -0.0056808908 0.65779823 0.39989018 -0.21448506 0.24429788 -0.031198427 0.11143752 -0.21084942 -0.06439469 0.29401353 0.08790828 -0.39370152 -0.27201268 -0.2674996 0.4391819 -0.2890404 0.3118502 -0.07924181
at 0.16535394 -0.040340077 0.09061249 -0.14063026 -0.13689262 0.38434294 -0.031726096 0.39541924 0.44413966 0.17731175 -0.095055595 0.35144198 0.41275418 -0.08562647 -0.11346023 0.2942825 -0.06836276 0.007105109 -0.23680176 0.11568572 -0.25356948 0.10382574 -0.20980011 0.018131454 0.33581212 0.1648973 -0.13370752 0.39696404 0.052072875 -0.20494953 0.34262154 -0.12897801 -0.009477734 0.08479423 -0.21909526 -0.2954562 -0.34750882 0.088916324 -0.21347158 -0.0265706 -0.11085827 0.057260223 -0.12844571 -0.39296883 0.41242632 0.58837026 -0.27757093 0.036393214 0.18811516 -0.009795038 0.5822647 0.2111983 0.28783226 0.35490337 0.023260301 -0.16403466 -0.07097545 0.1172709 -0.33838624 0.038767215 -0.065356195 -0.27735418 0.12192685 0.16769408 0.1962755 -0.3947039 -0.08114059 0.02378188 0.085551664 -0.006342753 0.3511278 0.031220632 0.00022627204 -0.29657045 -0.15962552 0.011681387 -0.19918095 -0.005426045 -0.31989262 0.19641502 -0.03725649 0.276324 0.07124098 -0.074928395 -0.19664828 0.13712521 0.14863926 0.14740887 -0.38089585 0.045651387 0.13694502 -0.0053364662 0.041398115 -0.06754126 -0.2927869 -0.2436554 0.082754225 -0.07191109 0.2999605 0.14059511
also 0.26312357 -0.15715426 -0.13586491 -0.026232481 -0.03391997 0.018087683 0.26648438 -0.013959239 0.36838838 0.10658383 -0.1999442 0.26000783 -0.098444924 -0.021966944 -0.089420296 -0.056937434 -0.10122316 -0.014820748 0.036171198 0.22482258 -0.2147439 0.07761947 -0.125308 -0.0040255743 0.09671347 0.10206307 -0.15822567 0.32000923 -0.032460295 -0.1996749 0.058247115 -0.11065799 -0.12557429 0.15625855 -0.035305586 -0.23298794 -0.37369725 -0.041974716 -0.06405205 -0.273893 -0.19949012 -0.043463163 0.21557805 -0.18924664 0.081052415 0.17441072 -0.033404555 0.032886166 0.06695463 -0.08756949 0.24437733 0.26346213 0.10181513 0.43884513 -0.03446824 -0.10947483 0.10162289 0.17263561 -0.31558987 0.026635408 0.041648414 0.062077433 -0.06333207 0.12140748 -0.0705693 -0.26400647 -0.13682397 0.17991483 -0.08449341 0.17974822 0.1196471 0.1314967 0.067629606 0.07947616 -0.1541939 -0.08938486 -0.19384147 0.062895685 -0.2279709 -0.131412 -0.36941752 0.14583413 -0.2191231 0.086953916 -0.03871228 -0.043011416 0.016525982 -0.2322834 -0.015719043 -0.2043701 -0.18154871 0.22862756 0.25544304 -0.059024375 -0.2946561 -0.06047864 0.24179779 -0.24052854 0.20725839 0.1471217
make 0.33467525 -0.0764373 -0.08327517 -0.2355531 -0.1268185 -0.038319677 0.14059573 -0.084316835 0.29516134 -0.14929695 -0.18843946 0.23454262 -0.06439873 0.12735312 -0.118858375 0.11489501 -0.06924744 0.073950514 -0.14579256 0.16773872 -0.006325193 0.17840049 -0.1251937 -0.22499287 -0.2214373 0.069496706 0.12655881 0.08060148 0.049159985 -0.13813783 0.05353845 0.13504975 -0.013800208 0.38025525 0.14720571 0.1448632 -0.4383853 -0.14126275 0.18452641 -0.07142963 -0.36836252 -0.1336155 0.06575459 -0.3222352 -0.077333584 0.2240624 0.18424457 0.07855074 0.26305792 0.1465178 0.10170092 -0.08651114 -0.024178624 0.52066964 -0.06511201 0.14621294 -0.2429417 0.21719229 -0.45763916 0.0013358128 -0.049072824 0.13191396 -0.0077930056 0.20887633 -0.12789279 -0.25746164 -0.262251 -0.16864601 -0.10027527 0.22728631 0.29331547 0.073046185 0.019992378 0.3784026 -0.08362368 -0.20078567 -0.06602634 0.22686331 -0.4213145 -0.18410765 -0.5996295 0.114728756 -0.7116022 0.0863542 0.11445512 -0.02634144 0.034234587 -0.071190976 0.16191088 0.12982422 0.05274308 0.38446948 0.03557224 0.053427458 0.089078896 -0.08697589 0.35160035 -0.060621165 0.1475627 -0.06354373
line 0.3819737 -0.10752327 -0.13246591 0.11715927 0.00088138913 -0.18187153 -0.37634733 -0.56950295 0.42308307 -0.05358875 -0.2999218 0.6190379 -0.27201357 0.27372664 -0.41034508 -0.29767445 -0.39641795 -0.18673941 -0.23001139 0.23386587 0.03485172 0.51390666 0.19395204 -0.48673883 -0.3998709 -0.4117745 0.018158544 0.4113942 0.56814605 -0.46170697 -0.006250638 0.1475467 -0.2517853 0.42194158 -0.093540184 -0.20674258 -0.8297129 -0.29513192 0.15223679 0.15608357 -0.36454695 -0.799326 -0.20913143 -0.107817836 0.20885263 0.80506355 0.039396424 0.027482212 0.12021699 0.4637474 0.33001104 -0.333135 0.13749932 0.30047444 -0.0930528 0.045840207 0.15896972 0.1339228 -0.29227045 -0.28458634 -0.046562675 0.3290334 -0.3465882 -0.06967951 0.08372965 -0.2638101 -0.55694765 -0.12804061 -0.10757786 0.37561482 0.17336458 0.10414554 0.15343186 0.18107523 -0.21392193 0.005117239 0.40578082 0.4892893 0.12778811 -0.014986848 -0.5610863 0.16943371 -0.7409394 0.1304017 0.21603905 0.14315498 0.04427786 -0.42992222 0.11281523 0.12926546 0.28410777 0.23158945 0.042562157 0.14804764 -0.19908091 -0.114184156 0.8221126 -0.26522875 0.5119365 0.48903793
change 0.57259667 -0.30427966 -0.16253418 -0.17221631 0.2374673 0.17682762 -0.13527444 -0.052765373 0.4143298 0.08067994 -0.25803193 0.1681239 -0.19729915 0.22623026 0.0013982593 0.1538493 -0.14288315 -0.0290308 -0.17347813 0.33539143 0.06932801 0.28718224 -0.19634019 -0.26048544 -0.14366217 -0.21977691 -0.06377017 0.20557576 0.4260271 -0.45868766 0.10010538 0.021503318 -0.07769474 0.5162315 0.13915715 0.045388646 -0.45803374 0.08196923 -0.075382434 -0.1663254 0.016899083 -0.13234551 -0.10714214 -0.63492817 0.09398117 0.21475138 -0.32706544 0.10144157 0.085935414 0.20906797 0.27189386 0.20603003 0.017433733 0.3667845 -0.226084 0.16269292 0.015009342 -0.05728478 -0.39312539 -0.15685706 -0.015424036 0.3190662 -0.36989772 -0.05150248 -0.07573342 -0.418552 -0.2057981 0.31213418 -0.064477965 0.21504572 -0.15049168 0.0075529576 0.02666862 0.30694902 -0.2862278 -0.019383611 0.090891555 0.18827078 -0.25192112 0.050145928 -0.5561308 0.20144828 -0.5880419 -0.04654025 0.07176941 -0.17394601 0.03566105 0.006560439 -0.09198563 0.21970274 0.20554194 0.2538909 0.33928305 0.032122593 -0.47090104 -0.17448327 0.47959128 -0.42383906 0.44165295 -0.010378791
final 0.36350954 -0.04635124 -0.33584568 -0.30110177 -0.30320898 0.26850557 -0.0036324556 -0.0050203204 0.5562657 0.046156526 -0.009643177 0.10414093 0.16175273 0.14648525 0.10343773 0.07011285 0.05088203 0.2997799 -0.11797418 0.21964607 -0.5376948 -0.500563 -0.48849177 -0.022993412 0.0871902 -0.48557076 -0.16101936 0.49135908 0.41387933 -0.13609937 -0.04997088 0.3749728 -0.48435482 0.4607842 0.18314144 -0.28060117 -0.55959755 0.46710688 -0.09014005 -0.36101815 0.019356465 0.029233 -0.24225546 -0.77978075 0.30159852 0.42026547 -0.07071996 -0.039950967 -0.27642363 0.17478153 0.19642909 -0.04783082 0.1561447 0.5259989 -0.22528602 -0.14750266 0.019469576 0.26372373 -0.0052352333 0.15884236 0.24121608 0.11435073 -0.5182517 0.036243454 -0.042516805 -0.36720404 -0.47256753 0.02029929 0.22590317 -0.07708393 -0.47342038 0.42035395 -0.075064965 0.25515717 0.11819153 0.22058015 0.077594906 0.2716102 -0.30294502 0.2713365 -0.5260473 0.40565598 -0.27317533 0.28146008 0.21320859 -0.027039172 0.024607498 0.123198576 0.15071583 0.35004324 0.055605896 0.24823995 -0.15995328 -0.112709664 -0.39026567 -0.63673085 0.44031307 -0.31793588 0.40462083 -0.16466516
n't 0.28728268 -0.5480788 -0.09734592 0.07869028 0.04809543 0.028779974 0.21443997 -0.009567243 0.6919116 0.012168453 -0.024117565 0.3151497 0.006195285 -0.066065945 -0.2916026 -0.006231524 0.111367375 -0.13959543 0.08567362 0.38945904 -0.3502777 -0.15314624 -0.09624779 -0.261713 0.2296727 0.32060292 -0.59536994 0.36378992 0.13459028 0.2872446 0.37655926 -0.2163878 0.010250601 0.33731928 -0.117164694 -0.36183533 -0.14070508 -0.101010114 0.120845474 -0.30109262 -0.18752344 -0.19469075 0.18392266 0.07607787 0.31874317 -0.035648465 0.23850009 0.33278573 0.23756137 -0.2072346 0.05225494 0.11635798 0.5030251 0.5936342 0.27425554 -0.046957836 -0.0382652 -0.18787305 -0.42632967 0.2934701 -0.054567177 -0.2676029 -0.025089914 0.13812894 -0.006573714 -0.40232313 -0.15335062 0.45494562 0.398389 0.054770198 0.39860192 0.30723736 0.12466964 0.14672136 -0.23151217 -0.39947093 -0.28462204 0.035075627 -0.3729745 -0.48702842 -0.36427176 0.17932029 -0.233432 0.42436785 0.16653001 -0.29335025 0.09592549 -0.37027216 0.24965832 -0.2037979 -0.34024283 0.31594688 0.08772652 0.21545191 -0.4959569 -0.26944605 0.40054113 -0.3016776 0.29658374 0.054062728
other 0.18990868 -0.1604454 -0.16846542 -0.566101 0.09934669 -0.19407728 0.3819217 0.095679365 0.29000205 0.19352898 -0.19809823 -0.110293515 -0.2599765 0.31200522 -0.06616994 0.2198134 -0.19374932 0.20864336 -0.2373529 0.44021454 0.2487876 0.13835956 -0.4390089 0.062255844 -0.32133073 0.17756654 0.12283099 -0.011092797 0.3639972 -0.26169157 0.09342741 -0.0011746238 0.19910528 0.016266476 0.1358254 0.27600846 -0.58854944 0.061604735 0.13541393 -0.3280212 -0.39167225 0.09341654 -0.007277067 -0.4517257 -0.08874552 0.036214978 -0.19337057 0.23703456 0.27008897 -0.028572802 0.18016568 -0.0736632 -0.07042092 0.4448575 -0.29120195 0.37770143 0.006393298 0.14046283 -0.44359356 -0.15238129 -0.05575301 0.11240692 0.35984722 0.36033195 -0.031610116 -0.16874018 0.086130634 0.049592186 -0.2658117 0.2101812 0.120014146 0.13099167 -0.2024773 0.4939998 -0.15633048 -0.1639665 -0.014433918 -0.046344373 -0.6211603 -0.19857995 -0.79271185 0.2809632 -0.9016582 0.13272153 -0.39446482 -0.15721054 0.06751541 -0.11606163 -0.17425434 0.155293 -0.2519449 0.4445598 0.08208524 0.031180393 -0.040255416 -0.1106371 0.5131812 -0.0759666 0.34083328 0.16092685
provide 0.08784455 -0.11835145 -0.03933691 -0.22697122 -0.07199168 -0.07866379 0.6585743 0.012131727 0.32239842 0.12932056 -0.1338361 0.094474114 -0.02490337 -0.13632992 -0.062350035 -0.07876613 0.24626909 -0.07995012 -0.07252759 0.2447382 -0.08889663 -0.24673584 -0.66311467 0.0308194 -0.08494368 0.1909429 -0.11432622 0.14059225 -0.008614771 -0.07677168 -0.26798493 0.06408616 0.008159758 0.18365544 0.0073590283 0.048316505 -0.46192577 0.31137702 0.15751018 -0.20580342 -0.24846302 -0.0760035 -0.014835557 -0.29923695 -0.012308792 0.2897873 -0.1671635 -0.08051358 0.04786265 -0.12100722 0.3024726 0.3084194 0.2936514 0.25515202 -0.3913132 0.000685798 0.20133471 0.3317217 -0.18133079 -0.0615343 0.100112 0.37574705 -0.045934085 0.14085747 -0.1706854 -0.099995404 -0.2221084 0.028517397 -0.21340543 0.17157046 -0.12091641 0.29929549 -0.19074589 0.076200545 0.13077328 0.10812568 -0.0035168116 0.07348784 -0.3356807 -0.1227912 -0.5460079 0.5153869 -0.47683883 0.16210344 -0.14827196 -0.05878503 -0.004545894 -0.252061 -0.28653258 -0.050330613 -0.13243091 0.40467536 0.36447698 -0.23989943 0.025519911 -0.13636398 0.16861075 -0.13013987 0.03780824 -0.26162076
upload 0.48097065 -0.20286085 -0.22848153 0.09603576 -0.34478453 0.05724888 0.33182532 -0.3254856 0.58575344 -0.43960422 -0.1418074 0.168608 0.10439502 -0.03272603 0.021788858 -0.0606097 0.18141085 -0.14070104 -0.003990065 0.13724355 -0.5715953 -0.31915775 -0.45230237 -0.008903342 0.28636435 -0.2578869 -0.19794716 0.22877158 -0.03186488 -0.08596539 -0.3124965 -0.058843948 -0.37192833 0.23011474 0.0059805335 -0.06846583 -0.32716435 0.23236173 -0.40076306 -0.3853416 -0.27616376 -0.19798921 0.2720895 -0.20723477 0.21514931 0.26429817 0.012223946 -0.03120918 -0.17653605 -0.014207206 -0.11331391 0.31164494 0.19418713 0.6631567 -0.18934086 -0.059963897 -0.08099996 0.4330837 -0.43050084 0.35654557 0.3373061 0.05167806 -0.06002329 0.025329076 -0.07362255 -0.39559284 -0.61937666 -5.01096e-05 0.09119956 0.23729655 -0.07055247 0.47339067 0.04179425 0.017752813 -0.10741382 -0.035414424 -0.15505797 0.21348302 -0.3958727 0.08133897 -0.66012865 0.119580954 -0.10434347 0.25366005 0.36702743 -0.2298358 0.12186706 -0.023157613 0.21899344 -0.31388885 -0.048446815 0.31743038 0.40251115 -0.29149836 -0.21237968 0.2831908 0.40178666 -0.44998696 0.20675808 -0.055532552
should 0.32671294 -0.0994735 -0.01439093 -0.10209241 -0.17163952 -0.13362749 0.2182937 -0.1162687 0.3268509 -0.037550647 -0.12107735 0.5100109 0.04989846 0.0069623287 -0.25001007 -0.07555714 -0.11007721 0.0738531 0.0058902814 0.17249297 -0.24935721 0.12754998 -0.065839484 -0.19275877 0.11336487 0.07995262 -0.23606853 0.4420726 0.17239271 -0.18969391 0.32842183 0.15613696 -0.2256815 0.24292824 -0.069747664 -0.3418955 -0.6792252 0.062531665 0.058917448 0.041048724 -0.21114887 -0.08883186 0.19158754 0.08433841 0.35257608 0.56061 0.18365955 -0.14067487 0.054002747 -0.057369154 0.5573141 -0.04900343 0.14353395 0.5318676 0.33925763 -0.22097155 -0.15462293 0.2332558 -0.27873117 -0.023728367 -0.34636986 -0.09073821 0.0047671814 0.3761385 -0.06554629 -0.4200468 -0.2857376 -0.124695584 0.20538408 -0.26640487 0.5090162 0.042716354 0.048116386 0.05378186 0.019191124 -0.31639957 -0.37390947 0.15882744 -0.21444237 0.01167101 -0.37125605 0.12816279 0.1727192 0.07365449 -0.15234748 0.18831712 -0.05258654 0.09591698 0.037763357 -0.08582222 -0.0024230417 0.14047408 0.04644876 0.079699986 -0.14798123 -0.30408344 0.4107476 0.21386044 0.31184727 -0.03356628
show 0.28693172 -0.2505041 -0.024176316 -0.008413465 0.2291202 0.1385938 0.096716456 -0.118802786 0.24324512 0.030579109 -0.1526073 0.65524256 0.045377243 0.1418579 -0.30602148 -0.039913006 0.038892694 -0.31034446 0.10907929 0.18263058 -0.12741144 -0.065864295 -0.14901656 -0.24119247 0.0875858 -0.22468063 -0.2778662 0.25804558 0.19970182 -0.2191186 -0.00905271 -0.04705823 -0.17239301 0.016727377 -0.007461073 -0.37389204 -0.53015953 -0.04275349 0.2490373 -0.28541332 -0.2197154 -0.42528266 0.24202566 -0.35927808 0.1341738 0.34420288 -0.03922944 0.03603237 -0.11458714 0.1900896 0.32284144 0.19008154 0.21267104 0.36652446 0.020120738 -0.10847768 0.17883328 0.34743893 -0.1437285 -0.15222044 0.17128114 0.012593537 -0.21295914 0.13967001 -0.08229833 -0.18714376 0.037382968 0.0048336377 -0.313605 0.3306412 0.19436513 0.25664642 -0.019050648 -0.12504601 -0.23760147 -0.06261874 0.114927925 0.006629223 0.016691413 0.15069619 -0.41468897 0.15030867 -0.14398919 -0.013167576 0.09316297 -0.043198332 -0.14319678 -0.15961903 -0.10236048 -0.40487573 0.13204128 0.15131517 0.5098121 -0.2715066 -0.30321118 0.11453877 0.43070072 -0.37395313 0.37351876 0.09328112
same 0.30960348 -0.17146324 0.05869723 0.059411336 -0.08527042 0.09875791 0.33025575 0.027552325 0.47009903 0.2160871 -0.29910845 0.290621 -0.08746121 0.037332706 -0.24410143 0.0035693066 -0.032902796 -0.0061443844 -0.12456501 0.15529142 -0.14794543 -0.045516085 -0.45641935 0.106447384 0.09915438 -0.022276547 -0.26024112 0.3984752 0.010636837 -0.20935751 -0.030185271 -0.104858905 -0.10609885 0.13022166 -0.0016285293 -0.15250324 -0.62466425 0.08971534 -0.024334082 -0.23822773 -0.069184765 -0.101965666 0.12812258 -0.28427127 0.19501288 0.38591236 -0.26786572 -0.008489765 -0.06941716 -0.040406615 0.2504368 0.2928054 0.3702272 0.45459878 -0.1542964 0.09909727 0.1021285 0.30113745 -0.2722387 0.015585906 0.14173302 -0.041545484 -0.061354782 0.09168128 0.07704782 -0.22614682 -0.17536634 0.154165 -0.122682825 0.16181545 0.027507529 0.26032656 -0.104105495 -0.07854032 -0.065182485 0.14961053 -0.05099484 -0.006974429 -0.19801936 0.11411503 -0.46186018 0.20120762 -0.23605928 0.015941838 -0.025436658 0.06809094 0.05283333 -0.040429756 -0.16175221 -0.1693806 -0.15271924 0.30695248 0.40643477 -0.06873687 -0.18287444 -0.0030159443 0.27569452 -0.30734167 0.22042927 0.1083415
try 0.30842975 -0.2558801 -0.19585565 -0.021797856 0.12265343 0.09019511 0.26804155 -0.05035697 0.42904446 -0.046147563 -0.12391728 0.3542767 0.05338666 -0.0010588119 -0.040396992 0.09540448 -0.1327296 -0.3972752 0.12996845 0.32037243 -0.29667357 0.061012525 -0.033526044 0.0044007753 0.2632477 0.04103003 -0.17185469 0.31590512 -0.11001006 -0.059311207 -0.13267332 -0.09075468 0.14063707 0.020838218 -0.26169834 -0.14763239 -0.33321634 -0.24631067 0.020652672 -0.3637132 -0.31130856 -0.16883585 0.2589121 -0.116966695 -0.045756347 0.2667337 -0.0158184 0.06232603 0.016047725 -0.06485901 0.17031662 0.27614325 0.16264582 0.25960064 -0.026956348 0.19195639 -0.13132006 0.29279605 -0.3152559 0.26376358 0.2034315 -0.1742131 0.0049671377 0.057382997 0.06500503 -0.37973118 0.054350637 0.16741863 -0.06772031 0.24951132 0.23179962 0.30812985 0.020408826 0.14620379 -0.3821612 -0.016937554 -0.15308762 -0.06785778 -0.16114572 0.11041968 -0.29181316 0.06601161 -0.19221593 0.1176598 0.10144584 0.034933913 0.094287634 -0.21245927 0.023226727 -0.23934598 0.11468011 0.2718587 0.50517094 -0.1447273 -0.32366857 0.32289496 0.2986375 -0.33609378 0.03727045 0.032980945
only 0.27487954 -0.14895913 -0.037857793 -0.22734316 -0.20692934 0.20093931 0.16599505 0.21451312 0.24301682 0.21018137 -0.11382807 0.103382 -0.1249608 -0.085140675 -0.07045498 0.18673594 -0.05716481 -0.019572888 -0.22530507 0.15729028 -0.3368796 0.16572899 -0.3858794 -0.08740457 0.09375148 0.039035145 -0.11883048 0.31347442 0.108951025 -0.18918145 0.1297074 -0.09868906 0.023846578 0.2956485 0.0013658311 -0.12566553 -0.44416553 0.11809727 -0.04289807 -0.05594395 -0.16199522 -0.056795504 -0.12816414 -0.15945755 0.22220334 0.4753577 -0.13376929 0.05830626 0.13808265 -0.09181512 0.27969924 0.24963325 0.29225314 0.2605081 0.0015837916 -0.086721964 -0.06846029 0.042108368 -0.23276128 0.08897641 -0.081917055 0.018545365 0.022036552 0.23416711 0.049507014 -0.31728083 -0.22710183 -0.023025865 0.09635578 -0.025216378 0.15442193 0.08467451 -0.055311993 -0.04022274 -0.009289122 -0.03404918 -0.120568745 0.12425562 -0.3367264 -0.12609665 -0.40221018 0.26053375 -0.19056076 0.15901269 -0.0078001907 -0.097628444 0.07224323 -0.118921526 -0.27712116 -0.109331384 -0.08441598 0.29058236 0.014001745 -0.013850244 -0.22933458 -0.085452326 0.17688192 -0.12922032 0.28342316 0.06822111
follow 0.420237 -0.29093245 -0.0488329 0.16593203 -0.027517088 -0.40608242 -0.04687887 -0.3780847 0.23433952 -0.10828833 -0.19972642 0.5671813 -0.06338497 0.19630958 -0.2389905 -0.24769096 0.05266317 -0.06377135 0.15547194 0.29807085 -0.16278614 0.34029788 -0.16638926 0.0035806426 -0.11713842 -0.4630751 -0.15856323 0.36022058 0.1253458 -0.29096627 -0.22639374 0.17494336 -0.39683497 0.19813888 0.19115226 -0.31975448 -0.72081214 -0.09320425 0.28932518 0.0005728605 -0.36841533 -0.36401224 0.12651116 0.0751555 0.09946114 0.48254603 -0.16046645 -0.08002921 -0.26962748 0.23288819 0.24966553 -0.054028347 0.34355083 0.32266614 -0.033749565 0.010606326 0.15849061 0.5529525 -0.12306942 -0.22705026 0.21608293 0.29593277 -0.18269354 0.14436081 -0.17938218 -0.30526748 -0.40978298 -0.053091638 -0.026256297 0.4507412 0.30551493 0.19276342 -0.041916676 -0.06544397 -0.39212513 -0.14686778 0.15199612 0.054356337 -0.09185258 -0.0006894081 -0.36928016 0.22813942 -0.25710022 -0.1141619 -0.047148317 0.03308499 -0.11502324 -0.2472703 0.060432907 -0.35862693 0.010302921 0.0019803264 0.36471263 -0.114224724 -0.110474564 -0.21943527 0.48764822 -0.24404292 0.026366422 0.03051865
after 0.37919667 -0.17327125 -0.08720262 -0.16522986 -0.33080405 0.2372902 0.06449598 0.18903817 0.38905987 -0.106298 -0.19862849 0.12668948 0.18963592 -0.055394046 0.1269486 0.20522326 -0.01929393 -0.15999871 -0.15465583 0.07344353 -0.3792095 0.013837584 -0.07185339 0.023320157 0.39843145 -0.06692024 -0.29990843 0.42605495 -0.069007784 -0.22476982 0.27234444 -0.06335775 -0.080585316 0.19675165 -0.10911634 -0.19903432 -0.21054359 -0.12520005 -0.23013406 -0.079833835 -0.24905421 -0.094866306 0.030052423 -0.26278594 0.2961426 0.41512215 -0.13367622 -0.010316435 0.41191757 -0.06859565 0.30729696 0.2911776 0.263949 0.37653682 0.15442921 -0.04537244 -0.22064449 0.12724553 -0.31913877 0.24564579 0.21007834 -0.21154049 -0.08390993 0.13097787 0.048374023 -0.46818456 -0.084308155 0.1758672 0.29730147 0.08901845 0.03870727 0.13811189 0.08793825 -0.24994981 -0.34151456 -0.08460113 -0.19402942 0.10248395 -0.19807647 0.067948565 -0.16378705 0.118444055 -0.021860791 0.12781104 0.084908955 -0.20687982 0.08096605 -0.09939326 -0.18797363 -0.34397057 0.06406501 0.18401422 0.15033469 -0.17206211 -0.33756095 0.25640675 0.20230915 -0.30694985 0.15593794 0.15129973
which 0.17857607 -0.06788321 -0.1737947 -0.111196704 -0.16335408 0.18617782 0.18351434 0.00022453992 0.26064432 0.05636035 -0.113427915 0.23674682 -0.17419475 -0.02805789 -0.06925774 0.052916206 -0.17018753 -0.018576069 -0.008516765 0.21493986 -0.22943877 0.107334286 -0.19742882 -0.06548757 0.075640276 0.07412839 -0.06900212 0.2086278 0.04934802 -0.2713504 0.028324263 -0.025836216 -0.15453406 0.34180263 -0.044618256 -0.11505565 -0.36421633 -0.068812884 -0.03611124 -0.08940599 -0.24723494 -0.17970446 0.050830603 -0.20230274 0.13522111 0.3106612 0.06969415 0.039599635 0.1531821 -0.11324005 0.21890996 0.24204768 0.13024496 0.31565312 0.08467994 -0.12663844 -0.0053434037 0.091212384 -0.22683835 -0.012355441 0.0034867337 0.0633657 -0.037096556 0.07242919 0.020006716 -0.33137605 -0.21271397 0.05909735 -0.0068127713 0.046475906 0.15364954 0.11146725 -0.020430531 0.05549585 -0.07266481 -0.061933078 -0.16131102 0.12824693 -0.1416008 -0.15401962 -0.44901228 0.21354848 -0.1695388 0.14746365 0.074476756 -0.120655544 0.034970317 -0.13187955 -0.10641851 -0.15787762 -0.23495649 0.20915255 0.17520846 0.04692958 -0.16354361 -0.17496844 0.18422605 -0.12746683 0.18914613 0.05228058
xbee 0.060780674 0.012379424 -0.63508433 -0.26545078 0.27999127 0.18030943 0.7298408 -0.4331389 0.18820994 0.028412705 0.00041524426 0.2178153 -0.22553504 0.118057586 -0.04267117 -0.0009948373 -0.44083554 -0.23769702 0.3371457 0.59566 -0.32453707 -0.22412786 -0.08411386 0.3637195 0.19383703 0.11870799 -0.23306814 -0.24005322 -0.0090725925 -0.194906 0.2401285 0.013569726 0.30295208 -0.23226525 -0.8266137 -0.10658677 -0.42174467 0.18798561 0.055918425 -0.53959054 -0.5313149 -0.26002407 0.4753958 -0.25470045 -0.24112694 0.3753052 -0.05251777 -0.09040937 -0.042554006 -0.23504156 0.115587525 0.170398 0.21229278 0.1903635 -0.09993258 0.38702124 0.490425 0.6048777 -0.17044973 0.18778689 0.19525267 -0.269294 0.4125274 0.28608078 -0.32634288 0.09125 0.2897177 -0.16027541 -0.22653377 -0.049696013 0.012925259 0.6844324 -0.20023304 0.6771307 -0.1339482 0.20991679 -0.2937394 -0.17275606 0.19759019 0.03685507 -0.9595456 0.42303133 -0.33028272 0.11772447 -0.3405471 0.13489363 -0.17344563 0.010530024 0.17447643 0.12459874 -0.17879342 0.64369446 0.6008256 -0.021885438 0.092872724 0.11012411 0.52501416 -0.21681549 -0.06628033 -0.046932988
run 0.48600984 -0.15227206 -0.14883319 0.13209522 -0.10003604 0.3692583 0.13607953 -0.11013664 0.3710066 -0.08013062 -0.25843987 0.24550869 -0.08244263 -0.17600763 -0.08239511 0.13456064 -0.1970471 -0.21355781 -0.033831947 0.1582036 -0.50250316 0.03362058 -0.18377352 0.14514324 0.5076214 -0.390008 -0.25234434 0.3058907 -0.105471134 -0.33547497 0.011073167 0.0678391 -0.16972224 0.23328933 -0.23291354 -0.13202174 -0.45797563 0.013470813 -0.16097485 0.013242841 -0.25458953 -0.24190493 0.25445694 -0.37524563 -0.03164658 0.44605434 -0.17101453 -0.09566117 0.06502233 -0.014662895 0.3252697 0.36635146 0.249458 0.2778401 -0.1885767 0.06724952 7.800688e-05 0.4533854 -0.14530535 0.2841774 0.2825009 -0.23449776 -0.14044924 -0.008268942 0.069710895 -0.29755256 -0.10276875 0.15238191 0.070478454 0.104913756 0.015342024 0.31009322 0.09137388 -0.046521664 -0.4011382 0.1768057 -0.13063721 0.046079174 0.17280278 0.36066937 -0.4600948 0.1608914 0.07219875 -0.08198249 0.032656714 0.032829802 0.100111105 0.27193964 0.06807977 -0.23140182 0.2606996 0.24448366 0.6082543 -0.19596574 -0.20099092 0.40530285 0.17411245 -0.2622347 -0.02633208 0.07844345
some 0.18080647 -0.050465703 -0.21082488 -0.100771904 -0.017284768 -0.037681095 0.28339124 0.09084985 0.4164968 0.029501801 -0.08437746 0.19815265 0.09797526 0.09453317 -0.03226805 0.005937059 -0.0026606373 0.097353704 -0.15243384 0.3836021 0.063854314 -0.009037457 -0.18435544 0.17780945 -0.09058608 0.15639661 -0.21819197 0.19246839 -0.13750035 -0.047348965 0.11352499 -0.13063595 -0.049024414 0.2013795 0.008595149 0.092937335 -0.36919984 0.027053583 -0.0723184 -0.34191874 -0.18542604 0.15820669 0.06338707 -0.44434097 0.21104844 0.08610956 -0.18274355 0.04914138 0.2208998 -0.08819596 0.17459728 0.1045381 0.20663448 0.46608856 0.080776334 -0.0794024 0.14395347 0.23421605 -0.23771685 0.025142938 0.054869816 0.23347846 0.10032794 0.027300177 0.0005133559 -0.22804369 -0.10803403 0.07120979 -0.015598047 0.2445824 -0.015578061 0.053977706 0.008702325 0.3918129 -0.18249223 0.12128429 -0.09983253 0.22935803 -0.4167881 -0.105801314 -0.5189004 0.30552927 -0.55182296 -0.0078115826 0.08174544 -0.0067785634 0.03986769 -0.23800305 -0.061670832 0.024089616 -0.109073095 0.29613984 -0.031368818 0.0055928235 -0.123155825 -0.14119822 0.350233 -0.26566777 0.044561923 -0.19091564
value 0.05975483 -0.1361951 -0.052540533 0.02039839 0.3921526 0.13024443 -0.33196548 0.028343806 0.41372854 0.21615164 -0.22155173 0.30351907 -0.23246682 -0.094084546 -0.16763319 -0.042608008 -0.38351905 -0.09012266 -0.20225321 0.36114645 0.07144245 0.39960733 -0.051263712 -0.3017799 0.19685832 0.11717794 -0.15336318 0.2684779 0.14458725 -0.3612179 0.14757289 -0.25422007 -0.028081674 0.31719577 -0.51270837 -0.33263606 -0.48679087 -0.05765394 -0.09522397 0.119887665 -0.095145136 -0.24250764 -0.00056829245 -0.17182183 -0.09877507 0.5483754 -0.20800534 0.013157192 0.24591433 0.23164745 0.39951286 0.20587821 0.18091552 0.120992094 -0.18580484 -0.051221434 0.41070795 -0.048299447 -0.088107884 0.14630747 0.010178704 -0.04178626 0.062310036 -0.06680164 0.23922254 -0.1626859 0.014421617 0.16808926 -0.05876312 0.24606086 0.14208695 0.093085155 0.2782252 0.14767511 -0.31003022 -0.03624352 -0.029175181 0.27531287 0.10124167 0.062906146 -0.4277763 0.3624382 -0.1852987 -0.1268553 -0.08995764 0.23155673 0.0628007 -0.0998432 -0.0009964164 0.2219375 0.22836626 0.34547538 0.39202902 0.039925557 -0.45391065 -0.08425666 0.494739 -0.12719837 0.06478764 0.23851816
pin -0.28978986 -0.01694893 -0.32530597 -0.3388886 -0.09856915 -0.14117445 0.07807463 -0.016199015 0.08938151 0.5982001 -0.36507985 0.053516068 0.15344043 -0.17138213 0.054038804 -0.3226333 -0.3197941 0.13917963 -0.01410317 0.24585441 -0.28342515 0.14559537 -0.206531 -0.027913682 0.048489973 0.35339797 0.018010922 0.22560753 -0.16923505 -0.05100338 -0.81053084 0.020540262 0.22637483 -0.08111636 -0.12479952 -0.34194198 -0.43572277 -0.121551566 0.16344614 -0.30009934 -0.13050786 -0.33137935 -0.017574275 -0.15618886 -0.31212604 0.6428081 0.5551033 0.03927305 -0.038972113 0.10050018 0.3066057 0.1301977 -0.039761405 0.12759858 -0.24508488 -0.5358667 0.04515605 0.30724037 0.03630764 -0.018727029 0.17158699 0.08259208 -0.12785442 0.31577155 -0.026617253 0.1537639 -0.029362593 -0.36994347 -0.48481324 0.27147493 0.30356538 0.29043227 -0.12804163 -0.03600047 -0.14796042 0.3969894 0.09593301 -0.060521882 -0.20383602 -0.26313168 -0.050065577 0.33729467 -0.4010121 0.25086805 -0.2502854 0.2541853 0.20157845 -0.43631187 -0.13882092 -0.1988264 -0.14802699 0.28379282 0.130776 -0.26280192 0.157109 -0.21018896 0.14585395 0.014258816 0.14702573 0.20222457
battery -0.105669565 -0.14978415 -0.02572946 -0.05261701 -0.09765961 0.13961698 0.022241395 0.06128057 0.56975025 0.42121288 -0.1582794 0.30799317 0.11079562 0.13826084 -0.10572931 -0.15827008 -0.17337067 -0.089751236 -0.011280738 0.3904786 -0.26323184 -0.13006733 0.06627255 -0.25470227 -0.004016932 -0.04277597 -0.010284761 0.3183911 -0.07275623 0.1270732 0.0026151454 -0.34224838 0.41089424 -0.2951561 -0.62314606 -0.4899416 -0.11938216 -0.15921682 -0.19561458 -0.2690412 -0.07587362 0.06194224 0.29651272 -0.40511596 0.018242793 0.51785976 0.3619835 0.18647292 0.36113214 -0.13324088 0.59462494 0.39428228 0.14590976 0.36880296 -0.1496734 -0.12354945 0.32992437 0.08009423 -0.23685592 0.06983005 -0.15465906 0.24529172 0.0077481614 -0.01508303 0.05246189 -0.048211243 0.16571493 0.27282557 -0.41614312 0.3265703 -0.1021143 0.48557237 0.09229403 0.65929335 -0.110609084 0.27899727 -0.027815424 -0.01037036 -0.035734773 -0.3852698 -0.20470229 0.15508421 -0.5684413 0.18550423 -0.23382485 0.52441967 0.16219427 -0.5731192 0.031753294 -0.07190625 0.007901115 0.57059455 0.073827304 -0.38754743 -0.2191513 -0.021304108 0.055545807 -0.07959278 0.36476764 0.17206722
arena 0.34229648 -0.044675615 -0.2692735 -0.27011365 0.09218232 0.21744049 -0.23805839 -0.1155359 0.34188467 0.06862059 -0.05939595 0.17074944 -0.07440123 0.37880564 0.047592703 0.24203101 -0.15494938 0.2233531 0.0009947304 0.47645977 -0.075726315 -0.12824567 -0.38494065 0.026320843 -0.23102613 -0.5648022 -0.09438988 0.32738465 0.5671666 -0.32623565 0.3951203 0.45427722 -0.399051 0.5607253 0.115832 -0.045123752 -0.71337825 0.38951144 0.14155774 -0.055459183 -0.09902037 -0.09913961 -0.2791021 -0.84657633 0.2421119 0.47305512 -0.4236134 0.052609865 -0.056920435 0.18959521 0.24091536 -0.18653673 0.16129099 0.4163773 -0.23719221 0.31415996 0.12231601 0.22338602 -0.058611117 -0.016104946 -0.063446574 -0.096472874 -0.20518579 0.0858734 0.008111066 -0.49509686 -0.38575765 -0.10402197 0.28598705 -0.23948282 -0.17422488 0.35777903 -0.037616536 0.3937255 -0.03585856 0.010901 -0.038838636 0.2317053 -0.14375266 0.30057785 -0.6578621 0.36356524 -0.40606114 0.06736329 -0.013315517 -0.04510722 0.0039628283 0.39635107 -0.026263043 0.568254 0.18198508 0.15308467 -0.02261036 0.19477122 -0.27371284 -0.6159467 0.56243753 -0.18042077 0.35753202 -0.035365444
dear 0.10934143 -0.3712018 -0.36425492 -0.23901871 -0.030183775 0.01557758 0.05175707 0.13085705 0.45421317 -0.08042542 0.08413141 0.2535518 0.54873437 -0.2907936 0.18399443 0.062135637 0.18742943 -0.053673305 0.107731335 0.28835276 -0.65315574 -0.6055445 -0.4978357 -0.16810396 0.19478774 -0.5730629 -0.25211245 0.27910516 -0.09290927 0.07448242 -0.24799667 0.3323981 -0.20827402 0.08802745 -0.25028294 -0.16063821 -0.2769401 0.29350847 0.123704195 -0.32363263 -0.2536437 -0.19675063 -0.22067389 -0.16555548 -0.25908947 0.5392499 0.14816278 -0.19585973 -0.0172553 0.063316725 0.1724052 -0.005251876 0.44511673 0.04780522 0.084999286 -0.5966908 -0.08935029 0.20954175 0.16994353 0.16798028 0.30942434 0.30730334 -0.48196998 0.13552473 -0.74575627 0.3370625 -0.30466616 -0.09244033 0.53400874 0.21410553 -0.18208727 0.5791305 -0.14619963 0.033110972 -0.16315743 -0.020953793 0.38566822 -0.00956668 -0.31668127 -0.07977302 -0.22248751 0.65591633 -0.5844948 0.113451 -0.0933377 -0.0320762 0.0388062 -0.36540812 0.2265835 0.13580678 0.16910678 0.28106186 -0.1564471 -0.18900038 -0.017915566 -0.11171023 0.28629744 -0.30775934 0.026664853 -0.1994749
while 0.34867725 -0.18858615 -0.14742741 0.020811766 0.05172279 0.033892438 0.0703217 -0.13037923 0.2370775 -0.028324366 -0.056114763 0.14179143 0.036996186 0.10314336 0.032530904 0.14472282 -0.050973244 -0.14447752 0.0057678674 0.4239071 -0.33687568 -0.08401453 0.024826167 0.13803312 0.3464672 -0.56471276 -0.31274357 0.32588193 0.007829301 -0.11449865 0.25624993 0.07823212 -0.122356415 0.29996604 -0.12660493 -0.006931122 -0.38966712 0.034545116 0.05358136 -0.13508475 -0.29816073 -0.32405457 0.1210597 -0.24178691 -0.04074607 0.34076288 -0.2482934 -0.19931477 0.38666672 -0.056991678 0.413305 0.18960084 0.391347 0.18642256 0.25351965 0.10652493 -0.022667874 0.27186006 -0.017416185 -0.10613127 0.30156067 -0.107293524 -0.27749974 0.05943791 -0.46490523 -0.09620043 -0.12642483 0.20086764 0.27204117 0.21796748 0.039304018 0.28134057 -0.027072731 0.10698405 -0.54204667 0.010304188 0.051129654 0.057742357 0.12610553 0.13760266 -0.2995604 0.2769826 -0.33740482 -0.18001397 -0.046660148 -0.16942218 -0.005156864 -0.17031085 0.117074154 -0.07381121 0.12268439 0.22368714 0.20950875 -0.029683512 -0.16849715 0.328112 0.39275572 -0.32706833 0.07316867 -0.033135574
submission 0.3826141 -0.12089658 -0.20976116 -0.061049532 -0.6271902 0.08335755 0.37142694 -0.19681191 0.7236723 -0.29044896 -0.14301467 0.11068398 0.28757292 0.087080054 0.06823781 0.059650812 0.15699333 0.09879288 -0.11344923 0.016958436 -0.75331056 -0.38948417 -0.58441216 -0.068400055 0.13234638 -0.36934218 -0.0860541 0.28639132 0.06870754 -0.051102765 -0.35973895 0.12761289 -0.36028817 0.39487153 0.17956164 -0.06396361 -0.37079373 0.36038834 -0.39950502 -0.45410597 -0.18716809 -0.16187927 0.012226387 -0.34274665 0.3875087 0.45652732 0.21033968 0.012807334 -0.17746231 0.18494055 -0.02085448 -0.02500143 0.2842952 0.6957601 -0.12411241 -0.24142332 -0.26973 0.27501154 -0.3415258 0.24717331 0.28505826 0.2321993 -0.18791987 -0.025596863 -0.16419451 -0.32743436 -0.8206628 -0.13179867 0.011137548 0.0072244657 -0.19452958 0.42843178 -0.15481208 0.050342526 0.27473795 0.14183725 -0.0008417708 0.25364053 -0.5716106 0.026764326 -0.60758483 0.28928745 -0.4205976 0.3878827 0.3570824 -0.06354245 0.21048684 0.023610067 0.19592619 -0.19380103 -0.20440294 0.4019163 -0.08757389 -0.2081629 -0.09608518 -0.18035655 0.46170232 -0.2768697 0.49702397 -0.085566945
drone 0.16624664 -0.2566536 -0.11321372 0.013312557 0.17627892 0.27420327 -0.21158536 0.06332195 0.6018362 -0.122588165 -0.03849274 0.34558994 0.15597336 -0.17102084 -0.02831401 0.101017706 -0.17335017 -0.24948922 -0.11190446 0.36998025 -0.22681558 -0.0006924951 -0.029553378 -0.13581146 0.23986275 -0.140203 -0.19055477 0.25169683 0.015457264 -0.04922772 0.25005913 -0.09683241 0.05818924 0.020402776 -0.6336933 -0.32661074 -0.17584215 -0.011339563 -0.25186655 -0.0057790526 -0.17944534 -0.026998362 0.09401658 -0.3309781 0.038951315 0.5289646 -0.08438193 0.055400424 0.2365859 0.07468474 0.45920932 0.14770763 0.14278631 0.28999662 -0.05757397 -0.100175716 0.08596347 -0.07567354 -0.27227697 0.27489945 -0.020490833 -0.03016185 0.092431255 -0.064225756 -0.05543914 -0.14431137 0.06431528 0.2724481 0.17856047 0.08206017 0.07282972 0.382616 0.2935485 0.22390696 -0.30101568 -0.06797682 -0.060468905 0.049210973 0.0020110384 0.077382214 -0.29684684 0.22873381 -0.13233273 0.09628748 -0.1389399 0.116997465 -0.030336164 -0.16788131 0.141227 0.29752272 0.34491527 0.1367887 0.1355763 -0.116943896 -0.49749628 0.011893985 0.3220562 -0.17876022 0.10990238 0.19422676
thank -0.28647664 0.042160198 -0.33102554 -0.106465764 -0.020916276 -0.08876164 0.2740702 -0.1506841 0.5855893 0.0884153 -0.12421158 0.20193906 0.5853847 -0.19974747 0.05094614 -0.24838722 0.043667078 0.23203023 0.23316278 0.17750262 -0.12322148 -0.14946245 -0.34595975 0.2292079 0.029702231 0.26283422 -0.24244624 0.20020099 -0.2059445 0.2308224 -0.4413252 0.18060374 -0.22134885 -0.09219812 0.16165659 -0.45732343 -0.27056754 -0.024036137 0.080790736 -0.4359424 -0.118263334 -0.029769631 0.05107313 -0.4029829 0.15987109 0.044584874 0.35038576 0.1306233 -0.23219101 0.16781062 0.15168993 -0.24129596 0.18928277 0.34725654 -0.108359985 -0.44146603 0.15202014 0.48784605 -0.0542096 0.1218013 0.37919462 0.19516902 0.024417138 -0.046218615 0.20311809 -0.09923663 -0.15327692 -0.07501723 -0.29626516 0.19813304 0.075192705 0.23779252 -0.19636875 0.15525427 -0.08282222 0.43902963 0.00898571 0.0332947 -0.40582964 -0.12004881 -0.24829002 0.5637137 -0.41375288 0.25281253 -0.16805448 0.12288862 0.2138998 -0.28236786 0.022307219 0.032745402 -0.2835809 0.018029088 0.0049586506 -0.19999762 0.094660714 -0.6476317 0.33678058 -0.097833 0.023961142 -0.14801784
about 0.13657188 -0.24932967 -0.18170452 -0.14017966 -0.13113478 0.0625996 0.205436 0.0777119 0.42194235 -0.12499323 -0.062808305 0.14618763 0.25376847 -0.09277683 0.06373973 0.14198266 0.09892369 0.18656518 0.07320542 0.20048724 -0.24765815 -0.060690824 -0.12613034 -0.10338089 0.23489138 -0.13492052 -0.091010466 0.11980175 -0.014189587 -0.11837986 0.071878806 0.09433192 -0.13563417 0.2223786 -0.076535344 -0.0946363 -0.20354474 0.096476145 -0.23687653 -0.28163674 -0.16700673 0.12740648 0.0664678 -0.30907327 0.054225378 0.060518157 0.2463345 -0.034320183 0.11940538 -0.0056103603 0.26510864 -0.0006565918 0.17281231 0.36794505 0.25373402 -0.23964322 -0.18589525 0.17386667 -0.27365 0.15713802 0.07841122 0.19228694 -0.08643261 0.048500933 -0.1834001 -0.22793032 -0.26769146 0.08617361 0.09684829 -0.02341808 0.026021313 0.12769388 -0.118149795 0.2787617 -0.046545193 -0.088865355 -0.12536882 -0.013963319 -0.48685658 -0.07159577 -0.41061506 0.28208265 -0.30997 0.11705014 -0.100270174 -0.06009605 0.093606636 -0.12729728 0.1266567 0.06065036 0.06431484 0.28027058 -0.12280913 -0.018165518 -0.043284416 -0.3346664 0.258159 -0.044588234 0.20509823 -0.29146376
able 0.4464988 -0.13887145 -0.29467568 -0.25205502 -0.015034956 0.2953894 0.16501895 -0.11641699 0.2438175 -0.20688924 0.085916206 0.34560153 -0.026658345 0.12311354 0.085198246 0.2205651 -0.1872658 -0.41053605 0.17347321 0.17496105 -0.25259322 -0.07578721 -0.091308475 -0.066178426 0.21010491 -0.020025248 -0.22979473 0.08740036 0.022501932 -0.17102145 0.08204659 0.08560472 -0.11692575 0.2520268 -0.7274385 -0.13698077 -0.18440215 -0.21884781 0.05664857 -0.29627648 -0.55294645 -0.16514796 0.32354927 -0.38505387 0.22593966 0.41565233 -0.0017957898 0.045508865 0.17731865 0.19045922 0.18471783 0.10793851 0.14694309 0.35480174 0.07264848 -0.08011075 0.0012508152 0.0194158 -0.054407075 0.27507597 0.05260145 0.04692911 0.09802723 -0.02209107 -0.18954304 -0.49666494 0.034048118 0.017288618 0.10850186 -0.06345653 0.13382486 0.49173135 0.23199546 0.030707698 -0.24921624 -0.12635794 -0.05712444 -0.12875703 -0.11196904 0.08847932 -0.47647852 0.14741382 -0.12489137 0.27004617 0.24180138 -0.3120189 -0.3798894 -0.30788198 0.09913803 -0.0075737457 0.24737026 0.30019125 0.37603232 0.041434564 -0.5380549 -0.10488734 0.5543221 -0.2965073 0.07068608 -0.20610188
receive 0.0037361742 -0.46087506 -0.29608166 -0.3824373 0.062081385 0.23012923 0.23924989 0.24933428 0.42330456 0.012328362 0.033419024 -0.10557925 -0.08673914 -0.6273888 0.289995 0.232759 0.060956955 -0.27383697 0.13522378 0.23296632 -0.23864247 -0.20472534 -0.47961923 0.08350817 0.29586548 0.30310535 -0.4398201 -0.09342636 -0.27754685 -0.00932059 0.14096253 -0.034828134 0.25294882 0.017718697 -0.5729706 -0.17435712 -0.11683166 0.19429119 -0.05225104 -0.26956496 -0.2658538 0.1538921 0.116120465 -0.43903148 -0.23523037 0.1452925 0.07815733 0.08387845 0.15490672 -0.022824166 0.20049977 0.14161529 0.26989907 0.25393024 -0.35983777 -0.23651548 0.23947038 0.031870198 -0.27589723 0.38208726 -0.019147186 0.035681475 0.14192958 0.1177028 -0.18874615 -0.026278106 0.1173141 0.18948911 0.23368342 -0.06948736 -0.13497339 0.5892093 0.122638814 0.17592244 -0.067553066 -0.05611368 -0.11609322 -0.3149702 -0.35046917 -0.1609463 -0.42916286 0.5192415 -0.31348863 0.35930976 -0.14986038 -0.26020157 -0.2774766 -0.3669388 0.012598062 0.24893986 0.16508648 0.5196002 0.29913095 -0.37682697 -0.2288069 -0.30487993 0.15790536 -0.2738274 -0.10687055 -0.29100013
then 0.41055274 -0.21709009 -0.123422176 -0.11099987 -0.04362149 0.1863479 0.08889858 0.066201046 0.3729815 0.09220424 -0.17867392 0.17452358 -0.11295577 -0.014297567 -0.04094291 0.07390025 -0.18184772 -0.08303549 -0.15382962 0.34320694 -0.13095735 0.2762871 -0.07551521 -0.072640575 0.2636089 0.14721577 -0.20102264 0.29697868 0.06378781 -0.30995238 0.22016093 -0.08812705 -0.023861915 0.31051436 -0.24298686 -0.17254056 -0.38982457 -0.020774566 -0.22405459 -0.11265231 -0.11222219 0.025375396 0.15743762 -0.18247458 0.20965292 0.32032326 -0.11822747 0.051067237 0.18320678 -0.02791033 0.3558141 0.30678293 0.096728384 0.4003819 0.005228989 -0.002833474 0.0144985905 0.06272813 -0.30010924 0.24735908 -0.08262629 -0.0045128567 0.09569279 0.13686061 0.16880046 -0.43489674 -0.02887864 0.2301728 0.13118143 0.08559526 0.15232337 0.09299235 0.168265 0.10105612 -0.28006533 -0.1667267 -0.24994473 0.09596473 -0.15281251 0.007659098 -0.41642672 0.09853595 -0.023185302 0.080193125 -0.09707368 -0.07677139 0.059169594 -0.037153672 -0.10162711 -0.05975363 0.050488405 0.237193 0.28500086 -0.013893185 -0.46495402 -0.027718991 0.25724283 -0.20161898 0.14439385 0.08985181
servo -0.049034216 -0.3428327 -0.06995816 0.058563042 -0.0551768 0.20525792 0.11170909 0.24473083 0.49433675 0.51016706 -0.22792566 -0.34357417 -0.20117667 -0.28489554 -0.10297052 0.14358997 -0.22159319 0.22237025 -0.14674553 0.26434225 -0.44129956 0.26123935 -0.15010598 -0.19634947 0.28977057 0.08012773 0.03368448 0.06433045 -0.14357306 -0.20444705 -0.19488548 -0.29032356 0.3945258 0.36160922 -0.70133984 0.14240578 -0.17664549 0.16767004 -0.3808218 -0.040767305 -0.23708098 -0.054823883 0.034073308 -0.3357759 -0.2436214 0.48488468 0.15611935 0.15801246 0.6490578 -0.07006178 0.52196914 0.31474087 0.22431505 0.08767452 -0.25422895 -0.22510518 0.04484562 -0.29860196 -0.29395467 0.16384396 -0.22909537 0.28525674 0.08602641 0.054310977 -0.26793155 0.010420159 -0.18924563 0.23215856 -0.12624316 0.088278696 0.085010566 0.29917786 -0.034685265 0.45519766 0.16037202 0.28289267 0.002074834 -0.1499323 -0.26309547 -0.20705743 -0.38082862 0.524613 -0.79668456 0.33478653 -0.27227235 0.16124603 0.31919712 -0.37300938 -0.03168421 0.32267204 0.18525048 0.8691514 0.072484195 0.016896471 -0.051681794 0.035587393 -0.0373805 0.17471439 0.12420029 0.11097424
